svm_type c_svc
kernel_type rbf
gamma 0.05
nr_class 2
total_sv 206
rho -0.9998038113117218
label 1 -1
nr_sv 103 103
SV
1.0 1:0.0 2:0.0 3:0.022222222222222223 4:0.0 5:0.0 6:0.0 7:0.0 8:0.0 9:0.0 10:0.0 11:0.0 12:0.0 13:0.0 14:0.0 15:0.0 16:0.0 17:0.0 18:0.0 19:0.022222222222222223 20:0.0 
1.0 1:0.0 2:0.04216867469879518 3:0.0 4:0.0 5:0.0 6:0.0 7:0.0 8:0.0030120481927710845 9:0.0 10:0.0 11:0.0 12:0.0 13:0.0 14:0.0 15:0.0 16:0.0 17:0.0 18:0.012048192771084338 19:0.006024096385542169 20:0.0 
1.0 1:0.05563480741797432 2:0.0014265335235378032 3:0.0 4:0.0042796005706134095 5:0.0 6:0.02282453637660485 7:0.02710413694721826 8:0.0 9:0.0 10:0.0 11:0.0014265335235378032 12:0.008559201141226819 13:0.0 14:0.005706134094151213 15:0.0 16:0.0028530670470756064 17:0.0 18:0.0042796005706134095 19:0.007132667617689016 20:0.0028530670470756064 
1.0 1:0.0 2:0.0 3:0.023255813953488372 4:0.0 5:0.0 6:0.0 7:0.0 8:0.0 9:0.0 10:0.0 11:0.0 12:0.0 13:0.031007751937984496 14:0.0 15:0.0 16:0.0 17:0.0 18:0.0 19:0.0 20:0.007751937984496124 
1.0 1:0.005791505791505791 2:0.007722007722007722 3:0.005791505791505791 4:0.013513513513513514 5:0.0 6:0.011583011583011582 7:0.0 8:0.0 9:0.0 10:0.0 11:0.0 12:0.0 13:0.005791505791505791 14:0.003861003861003861 15:0.0 16:0.0 17:0.0 18:0.0 19:0.0 20:0.0 
1.0 1:0.011224489795918367 2:0.03979591836734694 3:0.012244897959183673 4:0.024489795918367346 5:0.0 6:0.02346938775510204 7:0.004081632653061225 8:0.0 9:0.01020408163265306 10:0.0010204081632653062 11:0.0010204081632653062 12:0.0 13:0.00510204081632653 14:0.004081632653061225 15:0.0 16:0.006122448979591836 17:0.0 18:0.0 19:0.0 20:0.0 
1.0 1:0.016233766233766232 2:0.00974025974025974 3:0.025974025974025976 4:0.022727272727272728 5:0.0 6:0.02922077922077922 7:0.003246753246753247 8:0.0 9:0.0 10:0.003246753246753247 11:0.003246753246753247 12:0.0 13:0.003246753246753247 14:0.0 15:0.0 16:0.012987012987012988 17:0.0 18:0.0 19:0.0 20:0.0 
1.0 1:0.0017035775127768314 2:0.010221465076660987 3:0.0017035775127768314 4:0.0034071550255536627 5:0.0 6:0.017035775127768313 7:0.005110732538330494 8:0.0 9:0.008517887563884156 10:0.0068143100511073255 11:0.0 12:0.0034071550255536627 13:0.0068143100511073255 14:0.0068143100511073255 15:0.0 16:0.0017035775127768314 17:0.0 18:0.0 19:0.0 20:0.0 
1.0 1:0.006276150627615063 2:0.0 3:0.0020920502092050207 4:0.006276150627615063 5:0.006276150627615063 6:0.0020920502092050207 7:0.010460251046025104 8:0.0 9:0.0041841004184100415 10:0.0020920502092050207 11:0.0010460251046025104 12:0.0 13:0.0010460251046025104 14:0.0010460251046025104 15:0.0020920502092050207 16:0.0020920502092050207 17:0.0020920502092050207 18:0.006276150627615063 19:0.0031380753138075313 20:0.005230125523012552 
1.0 1:0.006896551724137931 2:0.006896551724137931 3:0.0 4:0.0 5:0.0 6:0.0 7:0.0 8:0.0 9:0.0 10:0.0 11:0.0 12:0.0 13:0.0 14:0.0 15:0.0 16:0.0 17:0.0 18:0.013793103448275862 19:0.0 20:0.0 
1.0 1:0.0 2:0.007072135785007072 3:0.0 4:0.0 5:0.0 6:0.0 7:0.007072135785007072 8:0.0014144271570014145 9:0.0 10:0.002828854314002829 11:0.0 12:0.004243281471004243 13:0.0 14:0.0 15:0.0 16:0.0 17:0.0014144271570014145 18:0.019801980198019802 19:0.004243281471004243 20:0.008486562942008486 
1.0 1:0.0021691973969631237 2:0.004338394793926247 3:0.0 4:0.0 5:0.0 6:0.0021691973969631237 7:0.0 8:0.0021691973969631237 9:0.0 10:0.0 11:0.0021691973969631237 12:0.019522776572668113 13:0.0 14:0.0 15:0.0 16:0.0 17:0.0 18:0.02386117136659436 19:0.004338394793926247 20:0.0 
1.0 1:0.02702702702702703 2:0.0 3:0.0 4:0.0 5:0.009009009009009009 6:0.0 7:0.0 8:0.0 9:0.0 10:0.0 11:0.0 12:0.0 13:0.0 14:0.0 15:0.0 16:0.018018018018018018 17:0.0 18:0.0 19:0.0 20:0.009009009009009009 
1.0 1:0.0 2:0.0 3:0.0 4:0.0032948929159802307 5:0.04118616144975288 6:0.013179571663920923 7:0.014827018121911038 8:0.0 9:0.006589785831960461 10:0.0 11:0.0 12:0.0032948929159802307 13:0.0 14:0.0 15:0.0 16:0.011532125205930808 17:0.008237232289950576 18:0.0032948929159802307 19:0.0032948929159802307 20:0.0032948929159802307 
1.0 1:0.0 2:0.001876172607879925 3:0.0 4:0.0150093808630394 5:0.07317073170731707 6:0.020637898686679174 7:0.0 8:0.0 9:0.005628517823639775 10:0.01125703564727955 11:0.00375234521575985 12:0.0 13:0.001876172607879925 14:0.001876172607879925 15:0.0 16:0.054409005628517824 17:0.009380863039399626 18:0.009380863039399626 19:0.016885553470919325 20:0.0 
1.0 1:0.0 2:0.0 3:0.0012953367875647669 4:0.0025906735751295338 5:0.019430051813471502 6:0.0012953367875647669 7:0.006476683937823834 8:0.0 9:0.0012953367875647669 10:0.0 11:0.0 12:0.0051813471502590676 13:0.0 14:0.0012953367875647669 15:0.0 16:0.0012953367875647669 17:0.0 18:0.011658031088082901 19:0.0038860103626943004 20:0.0038860103626943004 
1.0 1:0.01694915254237288 2:0.0 3:0.002824858757062147 4:0.00423728813559322 5:0.0211864406779661 6:0.005649717514124294 7:0.005649717514124294 8:0.0 9:0.00423728813559322 10:0.0 11:0.00847457627118644 12:0.002824858757062147 13:0.0014124293785310734 14:0.0 15:0.0 16:0.00423728813559322 17:0.0 18:0.009887005649717515 19:0.005649717514124294 20:0.01977401129943503 
1.0 1:0.0 2:0.0 3:0.02247191011235955 4:0.0 5:0.0 6:0.0 7:0.011235955056179775 8:0.0 9:0.0 10:0.0 11:0.011235955056179775 12:0.0 13:0.0 14:0.0 15:0.0 16:0.0 17:0.0 18:0.0 19:0.0 20:0.0 
1.0 1:0.005298013245033113 2:0.0013245033112582781 3:0.0026490066225165563 4:0.01456953642384106 5:0.0026490066225165563 6:0.03443708609271523 7:0.0 8:0.0 9:0.0 10:0.0026490066225165563 11:0.010596026490066225 12:0.003973509933774834 13:0.003973509933774834 14:0.0 15:0.0 16:0.005298013245033113 17:0.0 18:0.0 19:0.0013245033112582781 20:0.011920529801324504 
1.0 1:0.009174311926605505 2:0.01834862385321101 3:0.009174311926605505 4:0.0 5:0.0 6:0.01834862385321101 7:0.01834862385321101 8:0.0 9:0.0 10:0.0 11:0.0 12:0.0 13:0.0 14:0.009174311926605505 15:0.0 16:0.0 17:0.0 18:0.0 19:0.0 20:0.0 
1.0 1:0.016666666666666666 2:0.0 3:0.0 4:0.0 5:0.0 6:0.0 7:0.0 8:0.0 9:0.0 10:0.0 11:0.0 12:0.0 13:0.0 14:0.0 15:0.0 16:0.0 17:0.0 18:0.0 19:0.0 20:0.0 
1.0 1:0.0 2:0.0 3:0.0 4:0.0038314176245210726 5:0.0 6:0.0 7:0.0 8:0.03065134099616858 9:0.0 10:0.0 11:0.0038314176245210726 12:0.0 13:0.0038314176245210726 14:0.0 15:0.0 16:0.0 17:0.0038314176245210726 18:0.0038314176245210726 19:0.0038314176245210726 20:0.0 
1.0 1:0.0 2:0.0 3:0.0 4:0.0 5:0.0 6:0.0 7:0.0 8:0.0 9:0.0 10:0.0 11:0.0 12:0.02127659574468085 13:0.0 14:0.0 15:0.0 16:0.0 17:0.0 18:0.0 19:0.0 20:0.0 
1.0 1:0.0 2:0.02830188679245283 3:0.0 4:0.0 5:0.0 6:0.009433962264150943 7:0.0 8:0.0 9:0.0 10:0.0 11:0.0 12:0.0 13:0.0 14:0.0 15:0.0 16:0.0 17:0.0 18:0.009433962264150943 19:0.009433962264150943 20:0.0 
1.0 1:0.0 2:0.02830188679245283 3:0.0 4:0.0 5:0.0 6:0.009433962264150943 7:0.0 8:0.0 9:0.0 10:0.0 11:0.0 12:0.0 13:0.0 14:0.0 15:0.0 16:0.0 17:0.0 18:0.009433962264150943 19:0.009433962264150943 20:0.0 
1.0 1:0.0 2:0.0 3:0.006802721088435374 4:0.0 5:0.0 6:0.0 7:0.006802721088435374 8:0.0 9:0.0 10:0.05442176870748299 11:0.013605442176870748 12:0.0 13:0.0 14:0.0 15:0.0 16:0.0 17:0.0 18:0.0 19:0.0 20:0.0 
1.0 1:0.021164021164021163 2:0.0026455026455026454 3:0.0 4:0.0 5:0.0 6:0.0 7:0.005291005291005291 8:0.0 9:0.0 10:0.0 11:0.007936507936507936 12:0.0 13:0.005291005291005291 14:0.0 15:0.0 16:0.0 17:0.0 18:0.010582010582010581 19:0.0 20:0.0 
1.0 1:0.007481296758104738 2:0.03740648379052369 3:0.0 4:0.0 5:0.0 6:0.0 7:0.0 8:0.00997506234413965 9:0.012468827930174564 10:0.0 11:0.00997506234413965 12:0.004987531172069825 13:0.004987531172069825 14:0.0 15:0.0 16:0.0 17:0.0 18:0.00997506234413965 19:0.0 20:0.0 
1.0 1:0.0 2:0.0032397408207343412 3:0.0064794816414686825 4:0.005399568034557235 5:0.0 6:0.0021598272138228943 7:0.0 8:0.0 9:0.0 10:0.0064794816414686825 11:0.00755939524838013 12:0.00755939524838013 13:0.0064794816414686825 14:0.0010799136069114472 15:0.0 16:0.0010799136069114472 17:0.0 18:0.00755939524838013 19:0.0021598272138228943 20:0.005399568034557235 
1.0 1:0.0 2:0.0 3:0.002403846153846154 4:0.0 5:0.03125 6:0.002403846153846154 7:0.0 8:0.0 9:0.009615384615384616 10:0.0 11:0.002403846153846154 12:0.002403846153846154 13:0.0 14:0.0 15:0.0 16:0.0 17:0.002403846153846154 18:0.0 19:0.014423076923076924 20:0.0 
1.0 1:0.0 2:0.0 3:0.0 4:0.0 5:0.0 6:0.0 7:0.0 8:0.048 9:0.0 10:0.0 11:0.0080 12:0.0 13:0.0080 14:0.0 15:0.0 16:0.016 17:0.0 18:0.0 19:0.0 20:0.0 
1.0 1:0.02830188679245283 2:0.0 3:0.0 4:0.0047169811320754715 5:0.02358490566037736 6:0.009433962264150943 7:0.0330188679245283 8:0.0 9:0.009433962264150943 10:0.0 11:0.0047169811320754715 12:0.0 13:0.0047169811320754715 14:0.0047169811320754715 15:0.0 16:0.0047169811320754715 17:0.0 18:0.0047169811320754715 19:0.014150943396226415 20:0.0330188679245283 
1.0 1:0.008264462809917356 2:0.0 3:0.0 4:0.008264462809917356 5:0.0 6:0.008264462809917356 7:0.024793388429752067 8:0.01652892561983471 9:0.0 10:0.01652892561983471 11:0.0 12:0.0 13:0.008264462809917356 14:0.0 15:0.01652892561983471 16:0.008264462809917356 17:0.0 18:0.0 19:0.0 20:0.0 
1.0 1:0.0 2:0.02109704641350211 3:0.0 4:0.0 5:0.0 6:0.0 7:0.0 8:0.0 9:0.0 10:0.0 11:0.0 12:0.004219409282700422 13:0.0 14:0.0 15:0.0 16:0.0 17:0.0 18:0.004219409282700422 19:0.004219409282700422 20:0.0 
1.0 1:0.0 2:0.008620689655172414 3:0.0 4:0.01293103448275862 5:0.021551724137931036 6:0.0 7:0.004310344827586207 8:0.0 9:0.0 10:0.0 11:0.008620689655172414 12:0.0 13:0.004310344827586207 14:0.0 15:0.004310344827586207 16:0.0 17:0.008620689655172414 18:0.0 19:0.004310344827586207 20:0.0 
1.0 1:0.0 2:0.0 3:0.0 4:0.0 5:0.0 6:0.0 7:0.0 8:0.0 9:0.0 10:0.0 11:0.0 12:0.0 13:0.0 14:0.0 15:0.027777777777777776 16:0.0 17:0.027777777777777776 18:0.0 19:0.027777777777777776 20:0.0 
1.0 1:0.0 2:0.0 3:0.00847457627118644 4:0.00423728813559322 5:0.01694915254237288 6:0.00847457627118644 7:0.00423728813559322 8:0.0 9:0.0211864406779661 10:0.0 11:0.01694915254237288 12:0.0 13:0.00423728813559322 14:0.0 15:0.0 16:0.0 17:0.0 18:0.012711864406779662 19:0.012711864406779662 20:0.01694915254237288 
1.0 1:0.0 2:0.00558659217877095 3:0.0 4:0.0 5:0.0 6:0.0111731843575419 7:0.0335195530726257 8:0.0 9:0.0111731843575419 10:0.01675977653631285 11:0.0 12:0.0 13:0.01675977653631285 14:0.00558659217877095 15:0.03910614525139665 16:0.00558659217877095 17:0.0 18:0.0 19:0.00558659217877095 20:0.00558659217877095 
1.0 1:0.0 2:0.0 3:0.02564102564102564 4:0.01282051282051282 5:0.0 6:0.0 7:0.0 8:0.0 9:0.0 10:0.01282051282051282 11:0.0 12:0.0 13:0.0 14:0.0 15:0.02564102564102564 16:0.01282051282051282 17:0.0 18:0.0 19:0.0 20:0.0 
1.0 1:0.0 2:9.514747859181732E-4 3:0.0 4:0.0019029495718363464 5:0.0 6:0.014272121788772598 7:9.514747859181732E-4 8:0.0 9:0.0 10:0.0 11:0.0 12:0.0 13:9.514747859181732E-4 14:0.0028544243577545195 15:0.0 16:0.0 17:0.0 18:0.0028544243577545195 19:0.004757373929590866 20:0.0 
1.0 1:0.04310344827586207 2:0.0 3:0.0 4:0.0 5:0.020114942528735632 6:0.0 7:0.0 8:0.0 9:0.0028735632183908046 10:0.0 11:0.005747126436781609 12:0.0 13:0.0028735632183908046 14:0.020114942528735632 15:0.008620689655172414 16:0.0 17:0.034482758620689655 18:0.0 19:0.005747126436781609 20:0.0 
1.0 1:0.008025682182985553 2:0.0016051364365971107 3:0.0 4:0.0016051364365971107 5:0.014446227929373997 6:0.004815409309791332 7:0.02086677367576244 8:0.0 9:0.0016051364365971107 10:0.0 11:0.02086677367576244 12:0.0032102728731942215 13:0.0 14:0.01765650080256822 15:0.0032102728731942215 16:0.0 17:0.03691813804173355 18:0.006420545746388443 19:0.008025682182985553 20:0.004815409309791332 
1.0 1:0.0 2:0.0 3:0.0 4:0.0392156862745098 5:0.024509803921568627 6:0.0196078431372549 7:0.004901960784313725 8:0.0 9:0.024509803921568627 10:0.0 11:0.004901960784313725 12:0.0 13:0.024509803921568627 14:0.0 15:0.0 16:0.0196078431372549 17:0.0 18:0.0 19:0.004901960784313725 20:0.00980392156862745 
1.0 1:0.0 2:0.0 3:0.0 4:0.0 5:0.0 6:0.0 7:0.02097902097902098 8:0.0 9:0.0 10:0.0 11:0.04895104895104895 12:0.04895104895104895 13:0.0 14:0.0 15:0.013986013986013986 16:0.006993006993006993 17:0.0 18:0.0 19:0.0 20:0.006993006993006993 
1.0 1:0.0 2:0.004694835680751174 3:0.0 4:0.009389671361502348 5:0.002347417840375587 6:0.014084507042253521 7:0.009389671361502348 8:0.0 9:0.002347417840375587 10:0.009389671361502348 11:0.011737089201877934 12:0.0 13:0.004694835680751174 14:0.011737089201877934 15:0.007042253521126761 16:0.004694835680751174 17:0.028169014084507043 18:0.004694835680751174 19:0.009389671361502348 20:0.002347417840375587 
1.0 1:0.0 2:0.0 3:0.0 4:0.0 5:0.0 6:0.0 7:0.013513513513513514 8:0.0 9:0.0 10:0.0 11:0.0 12:0.0 13:0.04054054054054054 14:0.0 15:0.04054054054054054 16:0.013513513513513514 17:0.0 18:0.0 19:0.0 20:0.0 
1.0 1:0.0 2:0.02459016393442623 3:0.0 4:0.05737704918032787 5:0.0 6:0.00819672131147541 7:0.0 8:0.0 9:0.0 10:0.01639344262295082 11:0.0 12:0.0 13:0.0 14:0.01639344262295082 15:0.0 16:0.0 17:0.0 18:0.0 19:0.0 20:0.01639344262295082 
1.0 1:0.0 2:0.0 3:0.0 4:0.0 5:0.0 6:0.0 7:0.023529411764705882 8:0.0 9:0.0 10:0.0 11:0.011764705882352941 12:0.0 13:0.011764705882352941 14:0.0 15:0.023529411764705882 16:0.0 17:0.023529411764705882 18:0.0 19:0.023529411764705882 20:0.0 
1.0 1:0.004273504273504274 2:0.0 3:0.0 4:0.0 5:0.00641025641025641 6:0.00641025641025641 7:0.004273504273504274 8:0.0 9:0.0 10:0.008547008547008548 11:0.004273504273504274 12:0.0 13:0.0 14:0.008547008547008548 15:0.017094017094017096 16:0.002136752136752137 17:0.023504273504273504 18:0.002136752136752137 19:0.004273504273504274 20:0.0 
1.0 1:0.0 2:0.0 3:0.0025575447570332483 4:0.0 5:0.0 6:0.0025575447570332483 7:0.0025575447570332483 8:0.0 9:0.0 10:0.010230179028132993 11:0.0076726342710997444 12:0.0 13:0.0 14:0.0 15:0.0 16:0.0 17:0.0 18:0.0025575447570332483 19:0.0076726342710997444 20:0.005115089514066497 
1.0 1:0.008714596949891068 2:0.02178649237472767 3:0.004357298474945534 4:0.004357298474945534 5:0.015250544662309368 6:0.013071895424836602 7:0.006535947712418301 8:0.0 9:0.02178649237472767 10:0.015250544662309368 11:0.0 12:0.004357298474945534 13:0.008714596949891068 14:0.013071895424836602 15:0.004357298474945534 16:0.002178649237472767 17:0.004357298474945534 18:0.002178649237472767 19:0.002178649237472767 20:0.002178649237472767 
1.0 1:0.0 2:0.0 3:0.0 4:6.43915003219575E-4 5:0.0025756600128783 6:0.0 7:0.0 8:0.021249195106245976 9:0.0 10:0.0 11:0.0 12:0.0 13:0.0 14:0.0 15:0.0 16:0.0 17:0.0 18:0.0 19:0.0038634900193174502 20:0.0 
1.0 1:0.0 2:0.0031847133757961785 3:0.0 4:0.01910828025477707 5:0.0 6:0.0031847133757961785 7:0.0031847133757961785 8:0.0 9:0.0031847133757961785 10:0.01592356687898089 11:0.0031847133757961785 12:0.01910828025477707 13:0.0 14:0.0031847133757961785 15:0.0031847133757961785 16:0.0 17:0.0 18:0.0031847133757961785 19:0.009554140127388535 20:0.01592356687898089 
1.0 1:0.016927083333333332 2:0.0 3:0.0 4:0.0026041666666666665 5:0.06901041666666667 6:0.0026041666666666665 7:0.018229166666666668 8:0.0 9:0.01171875 10:0.0013020833333333333 11:0.0013020833333333333 12:0.00390625 13:0.0078125 14:0.0013020833333333333 15:0.0 16:0.00390625 17:0.006510416666666667 18:0.0026041666666666665 19:0.006510416666666667 20:0.00390625 
1.0 1:0.01694915254237288 2:0.0 3:0.01694915254237288 4:0.0 5:0.03389830508474576 6:0.0 7:0.0 8:0.0 9:0.0 10:0.0 11:0.0 12:0.0 13:0.0 14:0.0 15:0.0 16:0.0 17:0.0 18:0.0 19:0.0 20:0.0 
1.0 1:0.0 2:0.0 3:0.0 4:0.011560693641618497 5:0.028901734104046242 6:0.0 7:0.0 8:0.0 9:0.011560693641618497 10:0.0 11:0.005780346820809248 12:0.0 13:0.017341040462427744 14:0.0 15:0.0 16:0.017341040462427744 17:0.011560693641618497 18:0.0 19:0.005780346820809248 20:0.0 
1.0 1:0.04608294930875576 2:0.03686635944700461 3:0.0 4:0.009216589861751152 5:0.0 6:0.004608294930875576 7:0.0 8:0.0 9:0.0 10:0.0 11:0.0 12:0.0 13:0.0 14:0.009216589861751152 15:0.0 16:0.004608294930875576 17:0.0 18:0.009216589861751152 19:0.0 20:0.0 
1.0 1:0.0 2:0.0 3:0.0 4:0.0 5:0.0 6:0.0 7:0.0 8:0.03125 9:0.0 10:0.0 11:0.0 12:0.0 13:0.0 14:0.0 15:0.0 16:0.0 17:0.0 18:0.0 19:0.0 20:0.0 
1.0 1:0.0 2:0.0 3:0.05263157894736842 4:0.011695906432748537 5:0.0 6:0.0 7:0.0 8:0.0 9:0.0 10:0.0 11:0.011695906432748537 12:0.0 13:0.0 14:0.0 15:0.0 16:0.0 17:0.0 18:0.0 19:0.0 20:0.0 
1.0 1:0.0 2:0.015384615384615385 3:0.0 4:0.023076923076923078 5:0.0 6:0.007692307692307693 7:0.015384615384615385 8:0.0 9:0.0 10:0.0 11:0.0 12:0.0 13:0.0 14:0.0 15:0.0 16:0.0 17:0.0 18:0.007692307692307693 19:0.015384615384615385 20:0.015384615384615385 
1.0 1:0.002840909090909091 2:0.005681818181818182 3:0.0 4:0.0 5:0.0 6:0.0 7:0.002840909090909091 8:0.0 9:0.0 10:0.002840909090909091 11:0.008522727272727272 12:0.005681818181818182 13:0.008522727272727272 14:0.0 15:0.0 16:0.002840909090909091 17:0.0 18:0.011363636363636364 19:0.014204545454545454 20:0.005681818181818182 
1.0 1:0.0 2:0.0 3:0.028409090909090908 4:0.011363636363636364 5:0.0 6:0.005681818181818182 7:0.0 8:0.0 9:0.0 10:0.011363636363636364 11:0.0 12:0.0 13:0.0 14:0.0 15:0.0 16:0.0 17:0.0 18:0.0 19:0.0 20:0.0 
1.0 1:0.0 2:0.0 3:0.0 4:0.0 5:0.0 6:0.0 7:0.0 8:0.0 9:0.0 10:0.014814814814814815 11:0.0 12:0.0 13:0.0 14:0.0 15:0.0 16:0.0 17:0.0 18:0.0 19:0.0 20:0.0 
1.0 1:0.0 2:0.06578947368421052 3:0.005263157894736842 4:0.0 5:0.0 6:0.010526315789473684 7:0.007894736842105263 8:0.0 9:0.005263157894736842 10:0.0 11:0.0 12:0.002631578947368421 13:0.002631578947368421 14:0.0 15:0.0 16:0.0 17:0.0 18:0.005263157894736842 19:0.0 20:0.0 
1.0 1:0.0 2:0.009009009009009009 3:0.0 4:0.0 5:0.0 6:0.0 7:0.0 8:0.036036036036036036 9:0.0 10:0.0045045045045045045 11:0.0045045045045045045 12:0.02702702702702703 13:0.0 14:0.0 15:0.0 16:0.0 17:0.0 18:0.018018018018018018 19:0.0 20:0.0 
1.0 1:0.0 2:0.0 3:0.0 4:0.0 5:0.0 6:0.0 7:0.0 8:0.006944444444444444 9:0.0 10:0.027777777777777776 11:0.020833333333333332 12:0.0 13:0.0 14:0.0 15:0.0 16:0.0 17:0.0 18:0.0 19:0.0 20:0.0 
1.0 1:0.005361930294906166 2:0.002680965147453083 3:0.00804289544235925 4:0.0 5:0.0 6:0.002680965147453083 7:0.002680965147453083 8:0.0 9:0.0 10:0.0 11:0.02680965147453083 12:0.002680965147453083 13:0.0 14:0.0 15:0.0 16:0.0 17:0.0 18:0.01876675603217158 19:0.0 20:0.0 
1.0 1:0.0 2:0.0 3:0.0 4:0.0 5:0.0 6:0.0 7:0.0 8:0.0 9:0.0 10:0.0 11:0.005405405405405406 12:0.02702702702702703 13:0.005405405405405406 14:0.0 15:0.0 16:0.0 17:0.0 18:0.0 19:0.0 20:0.016216216216216217 
1.0 1:0.0 2:0.0 3:0.0 4:0.03409090909090909 5:0.0 6:0.0 7:0.0 8:0.0 9:0.0 10:0.011363636363636364 11:0.03409090909090909 12:0.0 13:0.0 14:0.0 15:0.0 16:0.011363636363636364 17:0.0 18:0.0 19:0.0 20:0.0 
1.0 1:0.0 2:0.0 3:0.0 4:0.004366812227074236 5:0.0 6:0.0 7:0.004366812227074236 8:0.0 9:0.0 10:0.013100436681222707 11:0.0 12:0.004366812227074236 13:0.0 14:0.0 15:0.0 16:0.0 17:0.0 18:0.004366812227074236 19:0.0 20:0.013100436681222707 
1.0 1:0.0 2:0.006153846153846154 3:0.009230769230769232 4:0.003076923076923077 5:0.0 6:0.003076923076923077 7:0.0 8:0.0 9:0.0 10:0.0 11:0.006153846153846154 12:0.0 13:0.0 14:0.0 15:0.0 16:0.0 17:0.0 18:0.003076923076923077 19:0.0 20:0.0 
1.0 1:0.0025252525252525255 2:0.0 3:0.0025252525252525255 4:0.0 5:0.0 6:0.005050505050505051 7:0.0 8:0.03535353535353535 9:0.0 10:0.0 11:0.005050505050505051 12:0.0 13:0.005050505050505051 14:0.0025252525252525255 15:0.0 16:0.0 17:0.0 18:0.0 19:0.007575757575757576 20:0.0 
1.0 1:0.007692307692307693 2:0.0 3:0.0 4:0.0 5:0.0 6:0.0 7:0.007692307692307693 8:0.05 9:0.0 10:0.0 11:0.0038461538461538464 12:0.015384615384615385 13:0.015384615384615385 14:0.0038461538461538464 15:0.0 16:0.0 17:0.0 18:0.007692307692307693 19:0.0038461538461538464 20:0.0 
1.0 1:0.0 2:0.0 3:0.0 4:0.0 5:0.0 6:0.0 7:0.0 8:0.06172839506172839 9:0.0 10:0.00823045267489712 11:0.0 12:0.00823045267489712 13:0.0 14:0.0 15:0.0 16:0.0 17:0.0 18:0.012345679012345678 19:0.0 20:0.0 
1.0 1:0.0 2:0.01904761904761905 3:0.002380952380952381 4:0.002380952380952381 5:0.0 6:0.0 7:0.002380952380952381 8:0.0 9:0.01904761904761905 10:0.0 11:0.0 12:0.0 13:0.0 14:0.04047619047619048 15:0.0 16:0.0 17:0.02142857142857143 18:0.002380952380952381 19:0.002380952380952381 20:0.0 
1.0 1:0.00881057268722467 2:0.007048458149779736 3:0.0 4:0.003524229074889868 5:0.03524229074889868 6:0.009691629955947136 7:0.010572687224669603 8:0.0 9:0.004405286343612335 10:0.006167400881057269 11:0.009691629955947136 12:8.81057268722467E-4 13:0.012334801762114538 14:0.009691629955947136 15:0.003524229074889868 16:0.001762114537444934 17:0.02378854625550661 18:0.0026431718061674008 19:0.010572687224669603 20:0.0 
1.0 1:0.0 2:0.0 3:0.0 4:0.0 5:0.0 6:0.003048780487804878 7:0.0 8:0.0 9:0.021341463414634148 10:0.0 11:0.0 12:0.0 13:0.0 14:0.027439024390243903 15:0.012195121951219513 16:0.0 17:0.009146341463414634 18:0.003048780487804878 19:0.018292682926829267 20:0.0 
1.0 1:0.0 2:0.0 3:0.0 4:0.0 5:0.0 6:0.0 7:0.0 8:0.0 9:0.0 10:0.0 11:0.0 12:0.0 13:0.0 14:0.04838709677419355 15:0.03225806451612903 16:0.0 17:0.0 18:0.016129032258064516 19:0.0 20:0.0 
1.0 1:0.0 2:0.0 3:0.0 4:0.06666666666666667 5:0.0 6:0.010256410256410256 7:0.010256410256410256 8:0.0 9:0.005128205128205128 10:0.0 11:0.0 12:0.0 13:0.0 14:0.0 15:0.0 16:0.020512820512820513 17:0.0 18:0.0 19:0.0 20:0.0 
1.0 1:0.09803921568627451 2:0.0 3:0.006535947712418301 4:0.0 5:0.0 6:0.026143790849673203 7:0.006535947712418301 8:0.0 9:0.0 10:0.0 11:0.0 12:0.0196078431372549 13:0.0 14:0.0 15:0.0 16:0.0 17:0.0 18:0.013071895424836602 19:0.006535947712418301 20:0.0 
1.0 1:0.07974683544303797 2:0.016455696202531647 3:0.0 4:0.0 5:0.0 6:0.013924050632911392 7:0.007594936708860759 8:0.0 9:0.010126582278481013 10:0.0 11:0.0 12:0.015189873417721518 13:0.002531645569620253 14:0.0012658227848101266 15:0.0 16:0.005063291139240506 17:0.0 18:0.002531645569620253 19:0.002531645569620253 20:0.0012658227848101266 
1.0 1:0.0 2:0.022222222222222223 3:0.0 4:0.0 5:0.0 6:0.005555555555555556 7:0.005555555555555556 8:0.0 9:0.0 10:0.0 11:0.005555555555555556 12:0.0 13:0.0 14:0.0 15:0.0 16:0.0 17:0.0 18:0.0 19:0.0 20:0.0 
1.0 1:0.0 2:0.0 3:0.07216494845360824 4:0.020618556701030927 5:0.0 6:0.0 7:0.0 8:0.0 9:0.0 10:0.0 11:0.0 12:0.0 13:0.003436426116838488 14:0.0 15:0.003436426116838488 16:0.003436426116838488 17:0.0 18:0.006872852233676976 19:0.003436426116838488 20:0.0 
1.0 1:0.0014814814814814814 2:0.02666666666666667 3:0.0044444444444444444 4:0.002962962962962963 5:0.0 6:0.0044444444444444444 7:0.002962962962962963 8:0.0014814814814814814 9:0.0 10:0.0 11:0.0044444444444444444 12:0.0 13:0.005925925925925926 14:0.002962962962962963 15:0.0 16:0.0 17:0.0014814814814814814 18:0.0044444444444444444 19:0.0014814814814814814 20:0.0 
1.0 1:0.012658227848101266 2:0.022151898734177215 3:0.0015822784810126582 4:0.0015822784810126582 5:0.0 6:0.0379746835443038 7:0.0015822784810126582 8:0.0 9:0.0 10:0.0015822784810126582 11:0.0 12:0.0 13:0.014240506329113924 14:0.0189873417721519 15:0.0 16:0.0189873417721519 17:0.0 18:0.0031645569620253164 19:0.0015822784810126582 20:0.007911392405063292 
1.0 1:0.015625 2:0.0078125 3:0.0234375 4:0.0078125 5:0.0 6:0.0078125 7:0.0 8:0.0 9:0.0 10:0.0 11:0.0 12:0.0 13:0.0 14:0.0078125 15:0.0 16:0.0 17:0.0 18:0.0 19:0.0 20:0.0 
1.0 1:0.0 2:0.00558659217877095 3:0.027932960893854747 4:0.002793296089385475 5:0.0 6:0.008379888268156424 7:0.00558659217877095 8:0.0 9:0.002793296089385475 10:0.00558659217877095 11:0.0 12:0.0 13:0.002793296089385475 14:0.00558659217877095 15:0.0 16:0.0 17:0.0 18:0.002793296089385475 19:0.002793296089385475 20:0.0 
1.0 1:0.003436426116838488 2:0.0 3:0.0 4:0.003436426116838488 5:0.0 6:0.0 7:0.003436426116838488 8:0.0 9:0.0 10:0.0 11:0.0 12:0.0 13:0.003436426116838488 14:0.003436426116838488 15:0.0 16:0.0 17:0.0 18:0.006872852233676976 19:0.0 20:0.0 
1.0 1:0.0 2:0.008064516129032258 3:0.002688172043010753 4:0.0062724014336917565 5:0.0 6:0.0035842293906810036 7:0.008960573476702509 8:0.0 9:8.960573476702509E-4 10:0.03763440860215054 11:0.002688172043010753 12:0.0017921146953405018 13:8.960573476702509E-4 14:8.960573476702509E-4 15:0.0 16:0.0017921146953405018 17:0.0 18:0.0017921146953405018 19:0.0 20:0.017025089605734768 
1.0 1:0.06 2:0.0 3:0.0 4:0.01 5:0.0 6:0.02 7:0.0 8:0.0 9:0.01 10:0.0 11:0.0 12:0.02 13:0.0 14:0.01 15:0.0 16:0.0 17:0.0 18:0.0 19:0.0 20:0.02 
1.0 1:0.008403361344537815 2:0.02040816326530612 3:0.004801920768307323 4:0.003601440576230492 5:0.0 6:0.025210084033613446 7:0.0 8:0.0 9:0.01800720288115246 10:0.003601440576230492 11:0.0024009603841536613 12:0.0 13:0.0012004801920768306 14:0.008403361344537815 15:0.0012004801920768306 16:0.0 17:0.010804321728691477 18:0.004801920768307323 19:0.0 20:0.0 
1.0 1:0.0 2:0.0 3:0.0518783542039356 4:0.0035778175313059034 5:0.0 6:0.0 7:0.0 8:0.0 9:0.0 10:0.0 11:0.0 12:0.0 13:0.008944543828264758 14:0.0 15:0.0 16:0.0 17:0.0 18:0.0017889087656529517 19:0.0017889087656529517 20:0.0 
1.0 1:0.0 2:0.008130081300813009 3:0.0 4:0.0 5:0.0 6:0.0 7:0.008130081300813009 8:0.008130081300813009 9:0.0 10:0.0 11:0.0 12:0.008130081300813009 13:0.0 14:0.0 15:0.0 16:0.0 17:0.0 18:0.0 19:0.008130081300813009 20:0.0 
1.0 1:0.0 2:0.078125 3:0.0 4:0.015625 5:0.0 6:0.015625 7:0.0 8:0.0 9:0.046875 10:0.0 11:0.0 12:0.0 13:0.03125 14:0.0 15:0.0 16:0.0 17:0.0 18:0.0 19:0.0 20:0.0 
1.0 1:0.006993006993006993 2:0.02097902097902098 3:0.0 4:0.09090909090909091 5:0.0 6:0.013986013986013986 7:0.0 8:0.0 9:0.04195804195804196 10:0.0 11:0.02097902097902098 12:0.0 13:0.006993006993006993 14:0.0 15:0.006993006993006993 16:0.006993006993006993 17:0.0 18:0.0 19:0.0 20:0.0 
1.0 1:0.0 2:0.02066115702479339 3:0.0371900826446281 4:0.008264462809917356 5:0.0 6:0.002066115702479339 7:0.0 8:0.0 9:0.0 10:0.0 11:0.002066115702479339 12:0.0 13:0.0 14:0.0 15:0.0 16:0.0 17:0.0 18:0.0 19:0.002066115702479339 20:0.0 
1.0 1:0.004283674440742504 2:0.017610661589719183 3:0.015230842455973346 4:0.01142313184198001 5:0.0 6:0.007139457401237506 7:0.0028557829604950024 8:0.0 9:0.0 10:0.041884816753926704 11:0.0 12:0.0 13:0.004283674440742504 14:0.0038077106139933364 15:0.0 16:9.519276534983341E-4 17:0.0 18:9.519276534983341E-4 19:0.0019038553069966682 20:0.005235602094240838 
1.0 1:0.0 2:0.005121638924455826 3:6.402048655569782E-4 4:0.0147247119078105 5:0.0 6:0.010243277848911651 7:0.0 8:0.0 9:0.0012804097311139564 10:0.003201024327784891 11:0.004481434058898848 12:0.0 13:0.0019206145966709346 14:0.0 15:0.0 16:0.0012804097311139564 17:0.0 18:0.0 19:0.0019206145966709346 20:0.0 
1.0 1:0.0012690355329949238 2:0.06133671742808799 3:0.005076142131979695 4:0.00338409475465313 5:0.0 6:0.004230118443316413 7:0.007614213197969543 8:0.0 9:0.0012690355329949238 10:8.460236886632825E-4 11:0.005922165820642978 12:0.0 13:0.0025380710659898475 14:0.015651438240270727 15:0.0 16:4.2301184433164127E-4 17:0.0 18:0.0021150592216582064 19:0.0012690355329949238 20:4.2301184433164127E-4 
1.0 1:0.0 2:0.0 3:0.024509803921568627 4:0.00980392156862745 5:0.0 6:0.0196078431372549 7:0.0 8:0.0 9:0.004901960784313725 10:0.0 11:0.0 12:0.0 13:0.004901960784313725 14:0.0 15:0.0 16:0.0 17:0.0 18:0.0 19:0.0 20:0.0 
1.0 1:0.06220839813374806 2:0.01866251944012442 3:0.0 4:0.003110419906687403 5:0.0 6:0.012441679626749611 7:0.007776049766718507 8:0.0 9:0.0 10:0.0 11:0.0015552099533437014 12:0.0 13:0.013996889580093312 14:0.00933125972006221 15:0.0 16:0.02021772939346812 17:0.0 18:0.0 19:0.003110419906687403 20:0.0 
1.0 1:0.0979381443298969 2:0.005154639175257732 3:0.0 4:0.0 5:0.0 6:0.0 7:0.041237113402061855 8:0.0 9:0.015463917525773196 10:0.0 11:0.0 12:0.02577319587628866 13:0.0 14:0.0 15:0.0 16:0.010309278350515464 17:0.0 18:0.005154639175257732 19:0.0 20:0.0 
1.0 1:0.04036697247706422 2:0.0 3:0.001834862385321101 4:0.0 5:0.0 6:0.003669724770642202 7:0.007339449541284404 8:0.0 9:0.0 10:0.0 11:0.003669724770642202 12:0.007339449541284404 13:0.001834862385321101 14:0.0 15:0.001834862385321101 16:0.007339449541284404 17:0.0 18:0.001834862385321101 19:0.0 20:0.0 
-1.0 1:0.0 2:0.0 3:0.0 4:0.0 5:0.0 6:0.0 7:0.008695652173913044 8:0.0 9:0.0 10:0.0 11:0.0 12:0.0 13:0.0 14:0.0 15:0.0 16:0.0 17:0.0 18:0.0 19:0.0 20:0.0 
-1.0 1:0.0 2:0.0 3:0.0 4:0.0 5:0.0 6:0.0 7:0.0 8:0.0 9:0.0 10:0.0 11:0.0 12:0.0 13:0.0 14:0.0 15:0.0 16:0.0 17:0.0 18:0.0 19:0.0 20:0.0 
-1.0 1:0.0 2:0.0 3:0.0 4:0.0 5:0.0 6:0.0 7:0.0 8:0.0 9:0.0 10:0.0 11:0.0 12:0.0 13:0.0 14:0.0 15:0.0 16:0.0 17:0.0 18:0.0 19:0.02857142857142857 20:0.0 
-1.0 1:0.0 2:0.0 3:0.0 4:0.0 5:0.0 6:0.0 7:0.0 8:0.0 9:0.0 10:0.0 11:0.0 12:0.0 13:0.0 14:0.0 15:0.0 16:0.0 17:0.0 18:0.0 19:0.0 20:0.0 
-1.0 1:0.0 2:0.0 3:0.0 4:0.0 5:0.0 6:0.008316008316008316 7:0.002079002079002079 8:0.0 9:0.0 10:0.0 11:0.0 12:0.0 13:0.0 14:0.0 15:0.0 16:0.0 17:0.0 18:0.0 19:0.0 20:0.0 
-1.0 1:0.0 2:0.0 3:0.0 4:0.0 5:0.0 6:0.0 7:0.0 8:0.0 9:0.0 10:0.0 11:0.0 12:0.0 13:0.0 14:0.0 15:0.0 16:0.0 17:0.0 18:0.0 19:0.0 20:0.0 
-1.0 1:0.0 2:0.0 3:0.0 4:0.0 5:0.0 6:0.0 7:0.0031113876789047915 8:0.0 9:0.0 10:0.0 11:0.0 12:6.222775357809583E-4 13:0.0 14:0.0 15:0.0 16:0.0 17:0.0 18:0.001866832607342875 19:0.001866832607342875 20:0.0 
-1.0 1:0.0 2:0.0 3:0.0 4:0.0 5:0.0 6:0.0 7:0.0 8:0.0 9:0.006896551724137931 10:0.0 11:0.0 12:0.0 13:0.0 14:0.0 15:0.0 16:0.0 17:0.0 18:0.0 19:0.0 20:0.0 
-1.0 1:0.0 2:0.0 3:0.0 4:0.0 5:0.0 6:0.0 7:0.0 8:0.0 9:0.0 10:0.0 11:0.0 12:0.0 13:0.0 14:0.0 15:0.0 16:0.0 17:0.0 18:0.0 19:0.0 20:0.0 
-1.0 1:0.002044989775051125 2:0.00408997955010225 3:0.0 4:0.0 5:0.0 6:0.0 7:0.0081799591002045 8:0.0 9:0.03067484662576687 10:0.002044989775051125 11:0.006134969325153374 12:0.010224948875255624 13:0.0 14:0.0 15:0.0 16:0.002044989775051125 17:0.0 18:0.0 19:0.002044989775051125 20:0.0 
-1.0 1:0.0 2:0.0 3:0.0 4:0.0 5:0.0 6:0.008130081300813009 7:0.0 8:0.0 9:0.0 10:0.0 11:0.0 12:0.0 13:0.0 14:0.0 15:0.0 16:0.0 17:0.0 18:0.0 19:0.016260162601626018 20:0.0 
-1.0 1:0.0 2:0.0 3:0.0 4:0.0 5:0.0 6:0.0 7:0.0 8:0.0 9:0.0 10:0.0 11:0.0 12:0.0 13:0.0 14:0.0 15:0.0 16:0.0 17:0.0 18:0.0 19:0.0 20:0.0 
-1.0 1:0.0 2:0.0 3:0.0 4:0.0 5:0.0 6:0.0 7:0.0 8:0.0 9:0.0 10:0.0 11:0.0 12:0.0 13:0.0 14:0.0 15:0.0 16:0.0 17:0.0 18:0.0 19:0.0 20:0.0 
-1.0 1:0.0 2:0.0 3:0.0 4:0.0 5:0.0 6:0.0 7:0.0 8:0.0 9:0.0 10:0.0 11:0.0 12:0.0 13:0.0 14:0.0 15:0.0 16:0.0 17:0.0 18:0.0 19:0.0 20:0.0 
-1.0 1:0.0 2:0.0 3:0.0 4:0.0 5:0.0 6:0.0 7:0.0 8:0.0 9:0.0 10:0.0 11:0.0 12:0.0 13:0.0 14:0.0 15:0.0 16:0.0 17:0.0 18:0.0 19:0.0 20:0.0 
-1.0 1:0.0 2:0.0 3:0.0 4:0.0 5:0.0 6:0.0 7:0.0 8:0.0 9:0.0 10:0.0 11:0.0 12:0.0 13:0.0 14:0.0 15:0.0 16:0.0 17:0.0 18:0.0 19:0.0 20:0.0 
-1.0 1:0.0 2:0.0 3:0.0 4:0.0 5:0.0 6:0.0 7:0.0 8:0.0 9:0.0 10:0.0 11:0.0 12:0.0 13:0.0 14:0.012195121951219513 15:0.0 16:0.0 17:0.0 18:0.0 19:0.0 20:0.0 
-1.0 1:0.0 2:0.0 3:1.0855405992184108E-4 4:2.1710811984368216E-4 5:0.0 6:9.769865392965696E-4 7:7.598784194528875E-4 8:0.0 9:0.0 10:0.0 11:0.0 12:0.0 13:0.0 14:4.342162396873643E-4 15:0.0 16:2.1710811984368216E-4 17:0.0 18:0.001519756838905775 19:0.0017368649587494573 20:0.0 
-1.0 1:0.0 2:0.0 3:0.0 4:0.0 5:0.0 6:0.0 7:0.009345794392523364 8:0.0 9:0.0 10:0.0 11:0.0 12:0.0 13:0.0 14:0.0 15:0.0 16:0.0 17:0.003115264797507788 18:0.003115264797507788 19:0.0 20:0.0 
-1.0 1:0.0 2:0.0 3:0.0 4:0.0 5:0.0 6:0.0025348542458808617 7:0.005069708491761723 8:0.0 9:0.0012674271229404308 10:0.0 11:0.0 12:0.0 13:0.0 14:0.0 15:0.0 16:0.0 17:0.0012674271229404308 18:0.0012674271229404308 19:0.0 20:0.0 
-1.0 1:0.0 2:0.0 3:0.0 4:0.0 5:0.0 6:0.001893222264293828 7:0.005868989019310867 8:0.0 9:0.0 10:1.893222264293828E-4 11:0.0 12:3.786444528587656E-4 13:0.0 14:0.0 15:0.0 16:0.001135933358576297 17:1.893222264293828E-4 18:0.002271866717152594 19:0.001893222264293828 20:1.893222264293828E-4 
-1.0 1:0.0 2:0.0 3:0.0 4:0.0 5:0.0 6:0.003970880211780278 7:0.005294506949040371 8:0.0 9:0.0013236267372600927 10:0.0 11:0.001985440105890139 12:0.0 13:0.0 14:0.0 15:0.0 16:6.618133686300463E-4 17:0.0 18:0.0013236267372600927 19:0.0026472534745201853 20:6.618133686300463E-4 
-1.0 1:0.0 2:0.0 3:0.0 4:0.0 5:0.0 6:0.004750593824228029 7:0.0035629453681710215 8:0.0 9:0.0 10:0.0011876484560570072 11:0.0 12:0.0 13:0.0 14:0.0 15:0.0 16:0.0023752969121140144 17:0.0 18:0.0 19:0.0 20:0.0 
-1.0 1:0.0 2:0.0 3:0.006578947368421052 4:0.0 5:0.0 6:0.0 7:0.0021929824561403508 8:0.0 9:0.0 10:0.0 11:0.0 12:0.0 13:0.0 14:0.0 15:0.0 16:0.0 17:0.0 18:0.0043859649122807015 19:0.0 20:0.0 
-1.0 1:0.0 2:0.0 3:0.0 4:0.0 5:0.0 6:0.0 7:0.0 8:0.0 9:0.0 10:0.0 11:0.0 12:0.0 13:0.0 14:0.0 15:0.0 16:0.0 17:0.0 18:0.0 19:0.0 20:0.0 
-1.0 1:0.0 2:0.0 3:0.0 4:0.0 5:0.0 6:0.0 7:0.011764705882352941 8:0.0 9:0.0 10:0.0 11:0.0 12:0.0 13:0.0 14:0.0 15:0.0 16:0.0 17:0.0 18:0.0 19:0.0 20:0.0 
-1.0 1:0.0 2:0.0 3:0.0 4:0.0 5:0.0 6:0.0 7:0.0 8:0.0 9:0.0 10:0.0 11:0.0 12:0.0 13:0.0 14:0.0 15:0.0 16:0.0 17:0.0 18:0.0 19:0.0 20:0.0 
-1.0 1:0.0 2:4.3497172683775554E-4 3:4.3497172683775554E-4 4:8.699434536755111E-4 5:0.0 6:4.3497172683775554E-4 7:0.006089604175728578 8:0.0 9:8.699434536755111E-4 10:0.0 11:0.0 12:0.0 13:0.0 14:0.0 15:0.0 16:0.0 17:0.0 18:0.002174858634188778 19:0.0013049151805132667 20:0.0 
-1.0 1:0.0 2:0.0 3:0.0 4:0.0 5:0.0 6:0.0 7:0.0 8:0.0 9:0.0 10:0.0 11:0.0 12:0.0 13:0.0 14:0.0 15:0.0 16:0.0 17:0.0 18:0.0 19:0.0 20:0.0 
-1.0 1:0.0 2:0.0 3:0.0 4:0.0 5:0.0 6:0.0 7:0.0 8:0.0 9:0.0 10:0.0 11:0.0 12:0.0 13:0.0 14:0.0 15:0.0 16:0.0 17:0.0 18:0.0 19:0.0425531914893617 20:0.0 
-1.0 1:0.0 2:0.0 3:0.0 4:0.0 5:0.0 6:0.0 7:0.012345679012345678 8:0.0 9:0.0 10:0.0 11:0.0 12:0.0 13:0.0 14:0.012345679012345678 15:0.0 16:0.0 17:0.0 18:0.0 19:0.0 20:0.0 
-1.0 1:0.0 2:0.0 3:0.0 4:1.8355359765051394E-4 5:0.0 6:9.177679882525697E-4 7:9.177679882525697E-4 8:0.0 9:0.0 10:1.8355359765051394E-4 11:0.0 12:0.0 13:0.0 14:1.8355359765051394E-4 15:0.0 16:1.8355359765051394E-4 17:1.8355359765051394E-4 18:0.0020190895741556535 19:0.003671071953010279 20:1.8355359765051394E-4 
-1.0 1:0.0 2:0.0 3:0.0 4:0.015625 5:0.0 6:0.0 7:0.010416666666666666 8:0.0 9:0.0 10:0.0 11:0.0 12:0.0 13:0.0 14:0.0 15:0.0 16:0.0 17:0.0 18:0.0 19:0.0 20:0.0 
-1.0 1:0.0 2:0.0 3:0.0 4:0.0 5:0.0 6:0.030303030303030304 7:0.0 8:0.0 9:0.0 10:0.0 11:0.0 12:0.0 13:0.0 14:0.0 15:0.0 16:0.0 17:0.0 18:0.0 19:0.0 20:0.0 
-1.0 1:0.0 2:0.0 3:0.0 4:0.0 5:0.0 6:0.009478672985781991 7:0.0 8:0.0 9:0.0 10:0.0 11:0.0 12:0.0 13:0.0 14:0.0 15:0.0 16:0.0 17:0.0 18:0.0 19:0.0 20:0.0 
-1.0 1:0.0 2:0.0 3:0.0 4:0.0 5:0.0 6:0.0 7:0.0 8:0.0 9:0.0 10:0.0 11:0.0 12:0.0 13:0.0 14:0.0 15:0.0 16:0.0 17:0.0 18:0.0 19:0.0 20:0.0 
-1.0 1:0.0 2:0.0 3:0.0 4:0.0014367816091954023 5:0.0 6:0.0028735632183908046 7:0.0014367816091954023 8:0.0 9:0.0 10:0.0 11:0.0 12:0.0 13:0.0 14:0.0 15:0.0 16:0.0 17:0.0 18:0.0 19:0.005747126436781609 20:0.0 
-1.0 1:0.0 2:0.0 3:0.0 4:0.0 5:0.0 6:0.0 7:0.0 8:0.0 9:0.0 10:0.0 11:0.0 12:0.0 13:0.0 14:0.0 15:0.0 16:0.0 17:0.0 18:0.0 19:0.050505050505050504 20:0.0 
-1.0 1:0.0 2:0.0 3:0.0 4:0.0 5:0.0 6:0.003289473684210526 7:0.003289473684210526 8:0.0 9:0.0 10:0.0 11:0.0 12:0.003289473684210526 13:0.0 14:0.0 15:0.0 16:0.0 17:0.0 18:0.0 19:0.009868421052631578 20:0.0 
-1.0 1:0.0 2:9.074410163339383E-4 3:0.0 4:0.0 5:0.0 6:0.0018148820326678765 7:0.006352087114337568 8:0.0 9:0.009074410163339383 10:0.0 11:0.0 12:0.0018148820326678765 13:0.0018148820326678765 14:0.0 15:0.0 16:0.0 17:0.0 18:0.006352087114337568 19:9.074410163339383E-4 20:0.0 
-1.0 1:0.0 2:0.0 3:0.0 4:0.0 5:0.0 6:0.0 7:0.0 8:0.0 9:0.0 10:0.0 11:0.0 12:0.0 13:0.0 14:0.0 15:0.0 16:0.0 17:0.0 18:0.0 19:0.0 20:0.0 
-1.0 1:0.0 2:0.024193548387096774 3:0.0 4:0.0 5:0.0 6:0.0 7:0.008064516129032258 8:0.0 9:0.0 10:0.0 11:0.0 12:0.0 13:0.0 14:0.0 15:0.0 16:0.0 17:0.0 18:0.0 19:0.0 20:0.0 
-1.0 1:0.0 2:0.0 3:0.0 4:0.0 5:0.0 6:0.0 7:0.0 8:0.0 9:0.0 10:0.0 11:0.0 12:0.0 13:0.0 14:0.0 15:0.0 16:0.0 17:0.0 18:0.0 19:0.0 20:0.0 
-1.0 1:0.0 2:0.0 3:0.0 4:0.0 5:0.0 6:0.0 7:0.0 8:0.0 9:0.0 10:0.0 11:0.0 12:0.0 13:0.0 14:0.0 15:0.0 16:0.0 17:0.0 18:0.0 19:0.0 20:0.0 
-1.0 1:0.0 2:0.0 3:0.0 4:0.0 5:0.0 6:0.0 7:0.0 8:0.0 9:0.0 10:0.0 11:0.0 12:0.0 13:0.0 14:0.0 15:0.0 16:0.0 17:0.0 18:0.0 19:0.0 20:0.0 
-1.0 1:0.0 2:7.601672367920942E-4 3:0.0 4:3.800836183960471E-4 5:0.0 6:0.007221588749524895 7:0.007601672367920942 8:0.0 9:0.003040668947168377 10:0.0 11:7.601672367920942E-4 12:0.0019004180919802356 13:0.002280501710376283 14:0.0 15:0.0 16:0.0015203344735841885 17:0.0 18:0.0011402508551881414 19:0.0015203344735841885 20:0.0015203344735841885 
-1.0 1:0.0 2:0.0 3:0.0 4:0.0 5:0.0 6:0.0 7:0.0 8:0.0 9:0.0 10:0.0 11:0.0 12:0.0 13:0.0 14:0.0 15:0.0 16:0.0 17:0.0 18:0.0 19:0.0 20:0.0 
-1.0 1:0.0 2:0.0 3:0.0 4:0.0 5:0.0 6:0.009009009009009009 7:0.0 8:0.0 9:0.0 10:0.0 11:0.0 12:0.0 13:0.0 14:0.0 15:0.0 16:0.0 17:0.0 18:0.0 19:0.0 20:0.0 
-1.0 1:0.0 2:0.0 3:0.0 4:0.0 5:0.0 6:0.0 7:0.0 8:0.0 9:0.0 10:0.0 11:0.0 12:0.0 13:0.0 14:0.0 15:0.0 16:0.0 17:0.0 18:0.0 19:0.0 20:0.0 
-1.0 1:0.0 2:0.0 3:7.122507122507123E-4 4:0.0 5:0.0 6:0.018518518518518517 7:0.002136752136752137 8:0.0 9:0.0 10:0.0 11:0.0 12:7.122507122507123E-4 13:0.0 14:0.0 15:0.0 16:7.122507122507123E-4 17:0.002849002849002849 18:0.002136752136752137 19:0.0 20:0.0 
-1.0 1:0.0 2:0.0 3:0.0 4:0.0 5:0.0 6:0.0 7:0.0 8:0.0 9:0.0 10:0.0 11:0.0 12:0.0 13:0.0 14:0.0 15:0.0 16:0.0 17:0.0 18:0.0 19:0.0 20:0.0 
-1.0 1:0.0 2:0.0 3:0.0 4:0.0 5:0.0 6:0.0 7:0.0 8:0.0 9:0.0 10:0.0 11:0.0 12:0.0 13:0.0 14:0.0 15:0.0 16:0.0 17:0.0 18:0.0 19:0.0 20:0.0 
-1.0 1:0.0 2:0.0 3:0.0 4:0.0 5:0.0 6:0.0 7:0.0 8:0.0 9:0.0 10:0.0 11:0.0 12:0.008928571428571428 13:0.0 14:0.0 15:0.0 16:0.0 17:0.0 18:0.0 19:0.017857142857142856 20:0.0 
-1.0 1:0.0 2:0.0 3:0.0 4:0.0 5:0.0 6:0.0 7:0.0 8:0.0 9:0.0 10:0.0 11:0.0 12:0.0 13:0.0 14:0.0 15:0.0 16:0.0 17:0.0 18:0.0 19:0.0 20:0.0 
-1.0 1:0.0 2:0.0 3:0.0 4:0.0 5:0.0 6:0.0 7:0.0 8:0.0 9:0.0 10:0.0 11:0.0 12:0.0 13:0.0 14:0.0 15:0.0 16:0.0 17:0.0 18:0.005649717514124294 19:0.002824858757062147 20:0.0 
-1.0 1:0.0 2:0.0 3:0.0 4:0.0 5:0.0 6:0.0 7:0.03076923076923077 8:0.0 9:0.0 10:0.0 11:0.015384615384615385 12:0.0 13:0.0 14:0.0 15:0.0 16:0.0 17:0.0 18:0.0 19:0.0 20:0.0 
-1.0 1:0.0 2:0.0073937153419593345 3:0.0018484288354898336 4:0.0036968576709796672 5:0.0 6:0.0166358595194085 7:0.005545286506469501 8:0.0 9:0.0018484288354898336 10:0.0 11:0.0018484288354898336 12:0.0 13:0.0018484288354898336 14:0.0018484288354898336 15:0.0 16:0.0 17:0.0 18:0.0 19:0.0018484288354898336 20:0.0 
-1.0 1:0.0 2:0.0 3:0.0 4:0.0 5:0.0 6:0.0 7:0.0 8:0.0 9:0.0 10:0.0 11:0.0 12:0.0 13:0.0 14:0.0 15:0.0 16:0.0 17:0.0 18:0.0 19:0.011111111111111112 20:0.0 
-1.0 1:0.0 2:0.0 3:0.0 4:0.0 5:0.0 6:0.0 7:0.0035460992907801418 8:0.0 9:0.014184397163120567 10:0.0 11:0.0 12:0.01773049645390071 13:0.0 14:0.0 15:0.0 16:0.0 17:0.0 18:0.0035460992907801418 19:0.0070921985815602835 20:0.0 
-1.0 1:0.0 2:0.0 3:0.0 4:0.038461538461538464 5:0.0 6:0.0 7:0.0 8:0.0 9:0.0 10:0.0 11:0.0 12:0.0 13:0.0 14:0.0 15:0.0 16:0.0 17:0.0 18:0.0 19:0.01098901098901099 20:0.005494505494505495 
-1.0 1:0.0 2:0.0 3:0.0 4:0.0 5:0.0 6:0.0 7:0.03164556962025317 8:0.0 9:0.006329113924050633 10:0.0 11:0.0 12:0.0 13:0.0 14:0.0 15:0.0 16:0.0 17:0.0 18:0.0 19:0.03164556962025317 20:0.0 
-1.0 1:0.0 2:0.0 3:0.0 4:0.0 5:0.0 6:0.0 7:0.01680672268907563 8:0.0 9:0.0 10:0.0 11:0.0 12:0.0 13:0.0 14:0.0 15:0.0 16:0.0 17:0.0 18:0.0 19:0.0 20:0.0 
-1.0 1:0.0 2:0.0 3:0.0 4:0.006493506493506494 5:0.0 6:0.006493506493506494 7:0.0 8:0.0 9:0.0 10:0.0 11:0.0 12:0.0 13:0.0 14:0.0 15:0.0 16:0.0 17:0.0 18:0.0 19:0.0 20:0.0 
-1.0 1:0.0 2:0.0 3:0.0 4:0.0 5:0.0 6:0.0 7:0.0 8:0.0 9:0.0 10:0.0 11:0.0 12:0.0 13:0.0 14:0.0 15:0.0 16:0.0 17:0.0 18:0.0 19:0.0 20:0.0 
-1.0 1:0.0 2:0.0 3:0.0 4:0.0 5:0.0 6:0.0027434842249657062 7:0.00823045267489712 8:0.0 9:0.0 10:0.0 11:0.0 12:0.0 13:0.0 14:0.0 15:0.0 16:0.0 17:0.0 18:0.006858710562414266 19:0.0027434842249657062 20:0.0 
-1.0 1:0.0 2:0.0 3:0.0 4:0.0 5:0.0 6:0.0 7:0.007936507936507936 8:0.0 9:0.0 10:0.0 11:0.0 12:0.0 13:0.0 14:0.0 15:0.0 16:0.0 17:0.0 18:0.0 19:0.0 20:0.0 
-1.0 1:0.0 2:0.0 3:0.0 4:0.0 5:0.0 6:0.0 7:0.0 8:0.0 9:0.012195121951219513 10:0.0 11:0.0 12:0.0 13:0.0 14:0.0 15:0.0 16:0.0 17:0.012195121951219513 18:0.0 19:0.0 20:0.0 
-1.0 1:0.0 2:0.0 3:0.0 4:0.0 5:0.0 6:0.0 7:0.0 8:0.0 9:0.0 10:0.0 11:0.0 12:0.0 13:0.0 14:0.0 15:0.0 16:0.0 17:0.0 18:0.0 19:0.0 20:0.0 
-1.0 1:0.0 2:0.0 3:0.0 4:0.0 5:0.0 6:0.0 7:0.0 8:0.0 9:0.0 10:0.0 11:0.0 12:0.0 13:0.0 14:0.0 15:0.0 16:0.0 17:0.0 18:0.0 19:0.0 20:0.0 
-1.0 1:0.0 2:0.0 3:0.0 4:0.0 5:0.0 6:0.0 7:0.0 8:0.0 9:0.0 10:0.0 11:0.0 12:0.0 13:0.0 14:0.0 15:0.0 16:0.0 17:0.0 18:0.0 19:0.0038910505836575876 20:0.0 
-1.0 1:0.0 2:0.0 3:0.0 4:0.0 5:0.0 6:0.00823045267489712 7:0.00411522633744856 8:0.0 9:0.0 10:0.0 11:0.0 12:0.0 13:0.0 14:0.0 15:0.0 16:0.0 17:0.0 18:0.0 19:0.0 20:0.0 
-1.0 1:0.0 2:0.0 3:0.0 4:0.0 5:0.0 6:0.0 7:0.0 8:0.0 9:0.0 10:0.0 11:0.0 12:0.0 13:0.0 14:0.0 15:0.0 16:0.0 17:0.0 18:0.0 19:0.0 20:0.0 
-1.0 1:0.0 2:0.0 3:0.0 4:0.0 5:0.0 6:0.0014731879787860931 7:0.0029463759575721863 8:0.0 9:8.839127872716559E-4 10:0.0 11:0.0 12:2.946375957572186E-4 13:0.0 14:0.0 15:0.0 16:0.0 17:0.0 18:0.0011785503830288745 19:0.0029463759575721863 20:2.946375957572186E-4 
-1.0 1:0.0 2:0.0 3:0.0 4:0.0 5:0.0 6:0.0 7:0.0 8:0.0 9:0.0 10:0.0 11:0.0 12:0.0 13:0.007142857142857143 14:0.0 15:0.0 16:0.0 17:0.0 18:0.0 19:0.0 20:0.0 
-1.0 1:0.0 2:0.0 3:0.0 4:0.0 5:0.0 6:0.0 7:0.004481792717086834 8:0.0 9:0.0016806722689075631 10:0.0 11:0.0033613445378151263 12:0.0 13:0.0 14:0.0 15:0.0 16:0.0016806722689075631 17:0.0016806722689075631 18:0.0011204481792717086 19:0.0033613445378151263 20:0.0 
-1.0 1:0.0 2:0.0 3:0.0 4:0.0014347202295552368 5:0.0 6:0.0 7:0.005738880918220947 8:0.0 9:0.0 10:0.0 11:0.0 12:0.0 13:0.0 14:0.0 15:0.0 16:0.0 17:0.0 18:0.0014347202295552368 19:0.00430416068866571 20:0.0 
-1.0 1:0.0 2:0.0 3:0.0 4:0.0 5:0.0 6:0.002150537634408602 7:0.0 8:0.0 9:0.0 10:0.0 11:0.0 12:0.0 13:0.0 14:0.0 15:0.0 16:0.0 17:0.0 18:0.0 19:0.0064516129032258064 20:0.0 
-1.0 1:0.0 2:0.0 3:0.0 4:0.0 5:0.0 6:0.0 7:0.0 8:0.0 9:0.0 10:0.0 11:0.0 12:0.0 13:0.0 14:0.0 15:0.0 16:0.0 17:0.0 18:0.0 19:0.0 20:0.0 
-1.0 1:0.0 2:0.0 3:0.0 4:0.0 5:0.0 6:0.0 7:0.0 8:0.0 9:0.0 10:0.0 11:0.0 12:0.0 13:0.0 14:0.0 15:0.0 16:0.0 17:0.0 18:0.0 19:0.0 20:0.0 
-1.0 1:0.0 2:0.0 3:0.0 4:0.013245033112582781 5:0.0 6:0.0 7:0.0 8:0.0 9:0.0 10:0.0 11:0.0 12:0.0 13:0.0 14:0.0 15:0.0 16:0.0 17:0.0 18:0.0 19:0.0 20:0.0 
-1.0 1:0.0 2:0.0 3:0.0 4:0.0 5:0.0 6:0.0 7:0.0 8:0.0 9:0.0 10:0.0 11:0.0 12:0.0 13:0.0 14:0.0 15:0.0 16:0.0 17:0.0 18:0.0 19:0.0 20:0.0 
-1.0 1:0.0 2:0.0 3:0.0 4:0.007518796992481203 5:0.0 6:0.0 7:0.0 8:0.0 9:0.0 10:0.0 11:0.0 12:0.0 13:0.0 14:0.0 15:0.0 16:0.0 17:0.0 18:0.0 19:0.0 20:0.0 
-1.0 1:0.0 2:0.0 3:0.0 4:0.0 5:0.0 6:0.0 7:0.0 8:0.0 9:0.0 10:0.0 11:0.0 12:0.0 13:0.0 14:0.0 15:0.0 16:0.0 17:0.0 18:0.0 19:0.0 20:0.0 
-1.0 1:0.0 2:0.0 3:0.0 4:0.001996007984031936 5:0.0 6:0.011976047904191617 7:0.011976047904191617 8:0.0 9:0.00998003992015968 10:0.0 11:0.0 12:0.0 13:0.0 14:0.0 15:0.0 16:0.0 17:0.0 18:6.653359946773121E-4 19:0.0 20:0.0 
-1.0 1:0.0 2:0.0016556291390728477 3:0.0 4:0.0 5:0.0 6:0.0 7:0.008278145695364239 8:0.0 9:0.008278145695364239 10:0.0 11:0.0 12:0.0 13:0.004966887417218543 14:0.0 15:0.0 16:0.0 17:0.0 18:0.006622516556291391 19:0.0016556291390728477 20:0.0 
-1.0 1:0.0 2:0.0 3:0.0 4:0.0 5:0.0 6:0.0 7:0.009345794392523364 8:0.0 9:0.0 10:0.0 11:0.0 12:0.0 13:0.0 14:0.0 15:0.0 16:0.0 17:0.0 18:0.0 19:0.0 20:0.0 
-1.0 1:0.0 2:0.0019093078758949881 3:0.002863961813842482 4:9.546539379474941E-4 5:0.0 6:0.001431980906921241 7:0.0038186157517899762 8:0.0 9:0.0042959427207637235 10:0.0 11:0.0 12:0.0 13:0.0 14:0.0 15:0.0 16:0.0 17:0.0 18:0.005250596658711217 19:0.002386634844868735 20:0.0 
-1.0 1:0.0 2:0.0 3:0.0 4:0.0 5:0.0 6:0.005376344086021506 7:0.0 8:0.0 9:0.0 10:0.0 11:0.0 12:0.0 13:0.0 14:0.0 15:0.0 16:0.0 17:0.0 18:0.005376344086021506 19:0.0 20:0.0 
-1.0 1:0.0 2:0.0 3:0.0 4:0.0 5:0.0 6:0.0 7:0.0 8:0.0 9:0.0 10:0.0 11:0.0 12:0.0 13:0.0 14:0.0 15:0.0 16:0.0 17:0.0 18:0.0 19:0.0 20:0.0 
-1.0 1:0.0 2:0.0 3:0.0 4:0.0 5:0.0 6:0.0 7:0.0035842293906810036 8:0.0 9:0.0 10:0.0 11:0.0 12:0.0035842293906810036 13:0.0 14:0.0 15:0.0 16:0.0 17:0.0 18:0.0 19:0.0 20:0.0 
-1.0 1:0.0 2:0.0 3:0.0 4:0.0 5:0.0 6:0.0 7:0.0 8:0.0 9:0.0 10:0.0 11:0.0 12:0.0 13:0.0 14:0.0 15:0.0 16:0.0 17:0.0 18:0.0 19:0.0 20:0.0 
-1.0 1:0.0 2:0.003257328990228013 3:0.003257328990228013 4:0.009771986970684038 5:0.0 6:0.006514657980456026 7:0.0 8:0.0 9:0.0 10:0.0 11:0.0 12:0.0 13:0.0 14:0.003257328990228013 15:0.0 16:0.0 17:0.006514657980456026 18:0.0 19:0.0 20:0.0 
-1.0 1:0.0 2:0.0 3:0.0 4:0.0 5:0.0 6:0.0 7:0.0 8:0.0 9:0.0 10:0.0 11:0.0 12:0.0 13:0.0 14:0.0 15:0.0 16:0.0 17:0.0 18:0.0 19:0.0 20:0.0 
-1.0 1:0.0 2:4.27715996578272E-4 3:0.0 4:2.13857998289136E-4 5:0.0 6:0.001710863986313088 7:0.010479041916167664 8:0.0 9:0.001710863986313088 10:0.0 11:0.0 12:4.27715996578272E-4 13:6.415739948674081E-4 14:0.0 15:0.0 16:0.0 17:0.0 18:0.0036355859709153123 19:8.55431993156544E-4 20:0.0 
-1.0 1:0.0 2:0.0 3:0.0 4:0.0 5:0.0 6:0.0 7:0.0 8:0.0 9:0.0 10:0.0 11:0.0 12:0.0 13:0.0 14:0.0 15:0.0 16:0.0 17:0.0 18:0.0 19:0.0 20:0.0 
-1.0 1:0.0 2:0.0 3:0.0 4:0.0 5:0.0 6:0.005917159763313609 7:0.0 8:0.0 9:0.0 10:0.0 11:0.0 12:0.0 13:0.0 14:0.0 15:0.0 16:0.0 17:0.0 18:0.0 19:0.0 20:0.0 
-1.0 1:0.0 2:0.0 3:0.0 4:0.0 5:0.0 6:0.0 7:0.011834319526627219 8:0.0 9:0.0 10:0.0 11:0.0 12:0.0029585798816568047 13:0.0 14:0.0 15:0.0 16:0.0 17:0.0 18:0.005917159763313609 19:0.0 20:0.0 
-1.0 1:0.0 2:0.0 3:0.0 4:0.0 5:0.0 6:0.0 7:0.0 8:0.0 9:0.015625 10:0.0 11:0.0 12:0.0 13:0.0 14:0.0 15:0.0 16:0.0 17:0.0 18:0.0 19:0.0 20:0.0 
-1.0 1:0.0 2:0.0 3:0.0 4:0.0 5:0.0 6:0.0 7:0.0 8:0.0 9:0.0 10:0.0 11:0.0 12:0.0 13:0.0 14:0.0 15:0.0 16:0.0 17:0.0 18:0.0 19:0.0 20:0.0 
-1.0 1:0.0 2:7.00770847932726E-4 3:0.0 4:0.0 5:0.0 6:7.00770847932726E-4 7:0.005606166783461808 8:0.0 9:0.021723896285914507 10:7.00770847932726E-4 11:0.0 12:0.0 13:7.00770847932726E-4 14:0.0 15:0.0 16:0.0 17:0.0 18:0.00350385423966363 19:0.00350385423966363 20:0.0 
-1.0 1:0.0 2:0.0 3:0.0 4:0.0 5:0.0 6:0.0 7:0.0 8:0.0 9:0.0 10:0.0 11:0.0 12:0.0 13:0.0 14:0.0 15:0.0 16:0.0 17:0.0 18:0.0 19:0.0 20:0.0 
-1.0 1:0.0 2:0.0 3:0.0 4:0.0 5:0.0 6:0.0 7:0.0 8:0.0 9:0.0 10:0.0 11:0.0 12:0.0 13:0.0 14:0.0 15:0.0 16:0.0 17:0.0 18:0.0 19:0.0 20:0.0 
-1.0 1:0.0 2:0.0 3:0.0 4:0.0 5:0.0 6:0.0 7:0.0 8:0.0 9:0.0 10:0.0 11:0.0 12:0.0 13:0.0 14:0.0 15:0.0 16:0.0 17:0.0 18:0.014492753623188406 19:0.0 20:0.0 
