svm_type c_svc
kernel_type rbf
gamma 0.05
nr_class 2
total_sv 89
rho -1.02165320840474
label 1 -1
nr_sv 46 43
SV
0.16296768940883263 1:1.4610708824979217 2:1.1879594658567443 3:1.1569897647262892 4:1.023666852513335 5:1.0204637476129987 6:0.8708572844068915 7:0.7982872624508126 8:0.6642576125335851 9:0.6144529563120558 10:0.611847380477527 11:0.6000950543851512 12:0.5540823910805505 13:0.5533810237562541 14:0.5482663206064295 15:0.5321193743100305 16:0.5227366328988396 17:0.5111926005100833 18:0.5073223360085732 19:0.5068050693270387 20:0.4887658537992389 
1.0 1:0.0 2:0.0 3:0.25756241703698646 4:0.05568724628509139 5:0.0 6:0.0 7:0.0 8:0.0 9:0.0 10:0.0 11:0.0 12:0.0 13:0.0 14:0.0 15:0.0 16:0.0 17:0.0 18:0.0 19:0.0 20:0.0 
1.0 1:0.007914822081102136 2:0.01007805334428124 3:0.008026627999222137 4:0.017007186027608995 5:0.0 6:0.014328093685563195 7:0.0 8:0.0 9:0.0 10:0.0 11:0.0 12:0.0 13:0.007558540008210929 14:0.0054694977643454604 15:0.0 16:0.0 17:0.0 18:0.0 19:0.0 20:0.0 
1.0 1:0.179819203421531 2:0.0 3:0.0 4:0.0 5:0.0 6:0.0 7:0.06784321516794557 8:0.0 9:0.0 10:0.0 11:0.0 12:0.0 13:0.0 14:0.0 15:0.0 16:0.0 17:0.0 18:0.0 19:0.0 20:0.0 
1.0 1:0.008577150288725747 2:0.0 3:0.0028994374502071592 4:0.007898734933324679 5:0.0 6:0.0025878495568764765 7:0.013483484186097969 8:0.0 9:0.006065272724135562 10:0.003081759993552139 11:0.001373828905910471 12:0.0 13:0.0013651756360715695 14:0.001481799080507818 15:0.0 16:0.002920324941643563 17:0.0 18:0.00809009051165878 19:0.00404504525582939 20:0.00790203890066591 
1.0 1:0.009425006524163004 2:0.00900074419368566 3:0.0 4:0.0 5:0.0 6:0.0 7:0.0 8:0.0 9:0.0 10:0.0 11:0.0 12:0.0 13:0.0 14:0.0 15:0.0 16:0.0 17:0.0 18:0.017779601216427115 19:0.0 20:0.0 
1.0 1:0.0 2:0.009229900340059551 3:0.0 4:0.0 5:0.0 6:0.0 7:0.009116132165424087 8:0.0025817026803808835 9:0.0 10:0.004167132325086061 11:0.0 12:0.0063026127298512055 13:0.0 14:0.0 15:0.0 16:0.0 17:0.002414659806154583 18:0.02552517006318744 19:0.005469679299254452 20:0.012822091975733993 
1.0 1:0.002964481444693353 2:0.005662073353945426 3:0.0 4:0.0 5:0.0 6:0.0026832800177591233 7:0.0 8:0.003959357472948557 9:0.0 10:0.0 11:0.002848981418764448 12:0.02899748720176661 13:0.0 14:0.0 15:0.0 16:0.0 17:0.0 18:0.030757553080478575 19:0.0055922823782688326 20:0.0 
1.0 1:0.0 2:0.002448607707475461 3:0.0 4:0.018889782604773968 5:0.12067116116880025 6:0.025528917392226104 7:0.0 8:0.0 9:0.008159100456294931 10:0.016582528445605132 11:0.0049282567881816525 12:0.0 13:0.002448607707475461 14:0.0026577859680402896 15:0.0 16:0.07595036461737911 17:0.01601467620029353 18:0.012092130283217317 19:0.02176583450979117 20:0.0 
1.0 1:0.0 2:0.0 3:0.031144519128067916 4:0.0 5:0.0 6:0.0 7:0.014483383013381639 8:0.0 9:0.0 10:0.0 11:0.014757083528656297 12:0.0 13:0.0 14:0.0 15:0.0 16:0.0 17:0.0 18:0.0 19:0.0 20:0.0 
1.0 1:0.0 2:0.0 3:0.0 4:0.004821960789437032 5:0.0 6:0.0 7:0.0 8:0.05594678298940336 9:0.0 10:0.0 11:0.005032108942721879 12:0.0 13:0.005000413440936477 14:0.0 15:0.0 16:0.0 17:0.006540860087935978 18:0.004938778115674198 19:0.004938778115674198 20:0.0 
1.0 1:0.0 2:0.0 3:0.009428102729245049 4:0.0 5:0.0 6:0.0 7:0.008768850940074598 8:0.0 9:0.0 10:0.08016768853975088 11:0.017869121551706266 12:0.0 13:0.0 14:0.0 15:0.0 16:0.0 17:0.0 18:0.0 19:0.0 20:0.0 
1.0 1:0.028923300444521387 2:0.0034526664235037577 3:0.0 4:0.0 5:0.0 6:0.0 7:0.006820217397835798 8:0.0 9:0.0 10:0.0 11:0.010423654238495322 12:0.0 13:0.0069053328470075155 14:0.0 15:0.0 16:0.0 17:0.0 18:0.013640434795671596 19:0.0 20:0.0 
1.0 1:0.0 2:0.0042282113652843 3:0.00898011512655954 4:0.006795527894401001 5:0.0 6:0.002671689175349797 7:0.0 8:0.0 9:0.0 10:0.009544803090180923 11:0.009928361812476106 12:0.011228088696916348 13:0.0084564227305686 14:0.0015298055302002962 15:0.0 16:0.001507467950438038 17:0.0 18:0.009744219889132572 19:0.002784062825466449 20:0.008158044480601092 
1.0 1:0.0 2:0.027533922111485663 3:0.0 4:0.0 5:0.0 6:0.0 7:0.0 8:0.0 9:0.0 10:0.0 11:0.0 12:0.0062671549929744046 13:0.0 14:0.0 15:0.0 16:0.0 17:0.0 18:0.00543890754510956 19:0.00543890754510956 20:0.0 
1.0 1:0.0 2:0.0 3:0.0 4:0.0 5:0.0 6:0.0 7:0.0 8:0.0 9:0.0 10:0.0 11:0.0 12:0.0 13:0.0 14:0.0 15:0.04632377615743379 16:0.0 17:0.047421235637535836 18:0.0 19:0.03580614133863794 20:0.0 
1.0 1:0.058906290776018784 2:0.0 3:0.0 4:0.0 5:0.03317301078107823 6:0.0 7:0.0 8:0.0 9:0.004165517761690804 10:0.0 11:0.0075481634140828185 12:0.0 13:0.0037503100807023577 14:0.028494825996431952 15:0.014376344324720833 16:0.0 17:0.058867740791423796 18:0.0 19:0.007408167173511298 20:0.0 
1.0 1:0.010968105505647155 2:0.0020948762569573363 3:0.0 4:0.0020201151942906346 5:0.023824322349538414 6:0.005956623217593687 7:0.0268977113105659 8:0.0 9:0.0023268060691306576 10:0.0 11:0.027406012267504554 12:0.004768268806853721 13:0.0 14:0.025012197641444973 15:0.005353630631356715 16:0.0 17:0.06302533404154041 18:0.008276218864789507 19:0.010345273580986884 20:0.007275456682860299 
1.0 1:0.0 2:0.0 3:0.0 4:0.0 5:0.0 6:0.0 7:0.027042400451558726 8:0.0 9:0.0 10:0.0 11:0.06429134991855157 12:0.07270776317024152 13:0.0 14:0.0 15:0.02332385932402261 16:0.009761645609130232 17:0.0 18:0.0 19:0.0 20:0.010565523341309946 
1.0 1:0.028177854556775992 2:0.0 3:0.0 4:0.038923662867311304 5:0.08500889360688678 6:0.0510099830180188 7:0.039866631593535026 8:0.0 9:0.014944331763591749 10:0.0 11:0.0 12:0.015312533333349835 13:0.013454720701901242 14:0.01460412289655128 15:0.03438465859108488 16:0.01439087960933632 17:0.0 18:0.0 19:0.0 20:0.031151955418707675 
1.0 1:0.0 2:0.0 3:0.0 4:0.0 5:0.0 6:0.0 7:0.01741920389447251 8:0.0 9:0.0 10:0.0 11:0.0 12:0.0 13:0.05290978005747651 14:0.0 15:0.06760767331084933 16:0.018863720568994907 17:0.0 18:0.0 19:0.0 20:0.0 
0.05491175913944926 1:0.0 2:0.03209281741191198 3:0.0 4:0.07221083903525785 5:0.0 6:0.01013927941136849 7:0.0 8:0.0 9:0.0 10:0.024148873392097092 11:0.0 12:0.0 13:0.0 14:0.02322294952402417 15:0.0 16:0.0 17:0.0 18:0.0 19:0.0 20:0.02476835799684135 
1.0 1:0.005840281820528358 2:0.0 3:0.0 4:0.0 5:0.010571618820343612 6:0.007929436462736895 7:0.005508637129021222 8:0.0 9:0.0 10:0.012590438264255748 11:0.0056127368976513275 12:0.0 13:0.0 14:0.012107691632183542 15:0.028506939173805416 16:0.0029827250472342377 17:0.04012566092406879 18:0.002754318564510611 19:0.005508637129021222 20:0.0 
1.0 1:0.0 2:0.0 3:0.0 4:0.014549500185468965 5:0.047663946126404726 6:0.0 7:0.0 8:0.0 9:0.01675838359616647 10:0.0 11:0.007591794416476361 12:0.0 13:0.022631929041926367 14:0.0 15:0.0 16:0.024206624082756468 17:0.01973600558325191 18:0.0 19:0.007450988949080727 20:0.0 
0.6686249585935722 1:0.003882460073873965 2:0.007415385841388754 3:0.0 4:0.0 5:0.0 6:0.0 7:0.003661991727815244 8:0.0 9:0.0 10:0.004184889991244098 11:0.011193583244747816 12:0.008439293939403035 13:0.011123078762083129 14:0.0 15:0.0 16:0.003965668528709157 17:0.0 18:0.014647966911260977 19:0.01830995863907622 20:0.008584487714814331 
1.0 1:0.0 2:0.0 3:0.039373042647699495 4:0.014301497341398472 5:0.0 6:0.007028364137425885 7:0.0 8:0.0 9:0.0 10:0.01673955996497639 11:0.0 12:0.0 13:0.0 14:0.0 15:0.0 16:0.0 17:0.0 18:0.0 19:0.0 20:0.0 
1.0 1:0.0 2:0.0 3:0.0 4:0.0 5:0.0 6:0.0 7:0.0 8:0.012675443021036698 9:0.0 10:0.040918924358831175 11:0.027362092376050216 12:0.0 13:0.0 14:0.0 15:0.0 16:0.0 17:0.0 18:0.0 19:0.0 20:0.0 
1.0 1:0.007327753061681692 2:0.0034989488152397333 3:0.011146898937257552 4:0.0 5:0.0 6:0.0033163326761044393 7:0.0034558206117720263 8:0.0 9:0.0 10:0.0 11:0.03521127169035953 12:0.0039820797140346755 13:0.0 14:0.0 15:0.0 16:0.0 17:0.0 18:0.024190744282404184 19:0.0 20:0.0 
1.0 1:0.0 2:0.0 3:0.0 4:0.0 5:0.0 6:0.0 7:0.0 8:0.0 9:0.0 10:0.0 11:0.007099353697569787 12:0.04014366846851174 13:0.007054637340996869 14:0.0 15:0.0 16:0.0 17:0.0 18:0.0 19:0.0 20:0.024500591964443066 
1.0 1:0.0 2:0.0 3:0.0 4:0.04290449202419541 5:0.0 6:0.0 7:0.0 8:0.0 9:0.0 10:0.01673955996497639 11:0.04477433297899126 12:0.0 13:0.0 14:0.0 15:0.0 16:0.015862674114836627 17:0.0 18:0.0 19:0.0 20:0.0 
1.0 1:0.0 2:0.0 3:0.0 4:0.00549577190411819 5:0.0 6:0.0 7:0.005628913048868846 8:0.0 9:0.0 10:0.019298007994557935 11:0.0 12:0.006486094905392725 13:0.0 14:0.0 15:0.0 16:0.0 17:0.0 18:0.005628913048868846 19:0.0 20:0.019793054643764046 
1.0 1:0.010512507276951044 2:0.0 3:0.0 4:0.0 5:0.0 6:0.0 7:0.0099155468322382 8:0.09126318975146425 9:0.0 10:0.0 11:0.005051463207886194 12:0.02285101128207591 13:0.02007858320129878 14:0.005448461234482594 15:0.0 16:0.0 17:0.0 18:0.0099155468322382 19:0.0049577734161191 20:0.0 
1.0 1:0.0 2:0.0 3:0.0 4:0.0 5:0.0 6:0.0 7:0.0 8:0.11267060463143733 9:0.0 10:0.01212412573594998 11:0.0 12:0.012224820850493286 13:0.0 14:0.0 15:0.0 16:0.0 17:0.0 18:0.015913840594950195 19:0.0 20:0.0 
1.0 1:0.0 2:0.02485919824922706 3:0.0032998359552357678 4:0.002996504204864442 5:0.0 6:0.0 7:0.0030690978290261093 8:0.0 9:0.02761143202035047 10:0.0 11:0.0 12:0.0 13:0.0 14:0.057338568229554916 15:0.0 16:0.0 17:0.036582096063241934 18:0.0030690978290261093 19:0.0030690978290261093 20:0.0 
1.0 1:0.0 2:0.0 3:0.0 4:0.0 5:0.0 6:0.003771317342033402 7:0.0 8:0.0 9:0.030936589230118286 10:0.0 11:0.0 12:0.0 13:0.0 14:0.03887011978258923 15:0.0203372675813124 16:0.0 17:0.01561430929528619 18:0.003929942342045628 19:0.023579654052273764 20:0.0 
1.0 1:0.0 2:0.0 3:0.0 4:0.0 5:0.0 6:0.0 7:0.0 8:0.0 9:0.0 10:0.0 11:0.0 12:0.0 13:0.0 14:0.06854515746607133 15:0.05379535295701989 16:0.0 17:0.0 18:0.020790662712757514 19:0.0 20:0.0 
1.0 1:0.009425006524163004 2:0.04500372096842829 3:0.07646516420408399 4:0.04339764710493329 5:0.07961522587458776 6:0.00853097991853073 7:0.0 8:0.0 9:0.029991727884173786 10:0.010159181220123603 11:0.018115592193798765 12:0.0 13:0.00900074419368566 14:0.009769654627348098 15:0.0 16:0.00962700222141809 17:0.0 18:0.0 19:0.0 20:0.0 
0.11349559285814596 1:0.0 2:0.0 3:0.10001564647827996 4:0.025949108578207536 5:0.0 6:0.0 7:0.0 8:0.0 9:0.0 10:0.0 11:0.0 12:0.0 13:0.004484906900633748 14:0.0 15:0.00573077643184748 16:0.004796959869778773 17:0.0 18:0.008859251465230006 19:0.004429625732615003 20:0.0 
1.0 1:0.004696309092795998 2:0.0 3:0.0 4:0.004324851429701256 5:0.0 6:0.0 7:0.004429625732615003 8:0.0 9:0.0 10:0.0 11:0.0 12:0.0 13:0.004484906900633748 14:0.004868040965517094 15:0.0 16:0.0 17:0.0 18:0.008859251465230006 19:0.0 20:0.0 
1.0 1:0.0 2:0.0 3:0.07189982457025339 4:0.0045027970162542594 5:0.0 6:0.0 7:0.0 8:0.0 9:0.0 10:0.0 11:0.0 12:0.0 13:0.011673594884476033 14:0.0 15:0.0 16:0.0 17:0.0 18:0.0023059411237763253 19:0.0023059411237763253 20:0.0 
1.0 1:0.0 2:0.010610633399060331 3:0.0 4:0.0 5:0.0 6:0.0 7:0.010479846245455008 8:0.014839543049018576 9:0.0 10:0.0 11:0.0 12:0.012075737669389708 13:0.0 14:0.0 15:0.0 16:0.0 17:0.0 18:0.0 19:0.010479846245455008 20:0.0 
1.0 1:0.009556824797228221 2:0.027379886183589244 3:0.0 4:0.11441197873118777 5:0.0 6:0.01730058864597141 7:0.0 8:0.0 9:0.060822385219653136 10:0.0 11:0.02755343567937924 12:0.0 13:0.00912662872786308 14:0.0 15:0.011661929662011305 16:0.009761645609130232 17:0.0 18:0.0 19:0.0 20:0.0 
1.0 1:0.005854180634951319 2:0.02298381370734106 3:0.02110889825719596 4:0.014376374290829877 5:0.0 6:0.0088314523192786 7:0.003681164459374486 8:0.0 9:0.0 10:0.06169973934734754 11:0.0 12:0.0 13:0.005590657388272149 14:0.005394002554842358 15:0.0 16:0.001328810397054377 17:0.0 18:0.0012270548197914953 19:0.0024541096395829906 20:0.007910313286949331 
1.0 1:0.08501561094890424 2:0.024356601706085612 3:0.0 4:0.003914562258298804 5:0.0 6:0.015390259262046107 7:0.010023492132122596 8:0.0 9:0.0 10:0.0 11:0.0020425823235620693 12:0.0 13:0.018267451279564206 14:0.01321866178194844 15:0.0 16:0.028222238238527375 17:0.0 18:0.0 19:0.004009396852849038 20:0.0 
1.0 1:0.13384480914468597 2:0.006727360350950621 3:0.0 4:0.0 5:0.0 6:0.0 7:0.053155508791380035 8:0.0 9:0.022416497645387622 10:0.0 11:0.0 12:0.038281333333374586 13:0.0 14:0.0 15:0.0 16:0.01439087960933632 17:0.0 18:0.006644438598922504 19:0.0 20:0.0 
1.0 1:0.05516655194877062 2:0.0 3:0.0025429928462367382 4:0.0 5:0.0 6:0.004539420507108095 7:0.009460705234429108 8:0.0 9:0.0 10:0.0 11:0.004819744712111599 12:0.01090139987768759 13:0.0023946934093292123 14:0.0 15:0.00305991915902315 16:0.010245250070499987 17:0.0 18:0.002365176308607277 19:0.0 20:0.0 
-1.0 1:0.4363643773073447 2:0.4124709629221039 3:0.3782887341404363 4:0.276559469005472 5:0.24920217050597473 6:0.23940622323450783 7:0.23896522017674496 8:0.2354699272364429 9:0.2337398037496674 10:0.22448415891103848 11:0.2112460386569341 12:0.209989243148426 13:0.20987127650734774 14:0.20978784602199513 15:0.2061014945921754 16:0.20479501725231478 17:0.19782812480508685 18:0.19400327180938695 19:0.19342023176112713 20:0.19269281382289655 
-1.0 1:0.0 2:0.0 3:0.006054887574380941 4:0.0 5:0.0 6:0.0 7:0.0 8:0.0 9:0.0 10:0.0 11:0.006788617840151368 12:0.0 13:0.0 14:0.0 15:0.0 16:0.0 17:0.0 18:0.0 19:0.0 20:0.0 
-1.0 1:0.0 2:0.0 3:0.004114460006984435 4:0.0 5:0.0 6:0.0 7:0.0 8:0.0 9:0.0 10:0.0035978444332916116 11:7.688415973289041E-4 12:0.018455358186642304 13:0.0 14:0.0 15:0.0014960854902558796 16:0.0 17:0.015597476214909527 18:0.0 19:0.0 20:0.0 
-1.0 1:0.0 2:0.0 3:0.0 4:0.0 5:0.0 6:0.0 7:0.0 8:0.0 9:0.0 10:0.0 11:0.0 12:0.0 13:0.0 14:0.0 15:0.0 16:0.0 17:0.0 18:0.0 19:0.0 20:0.0 
-1.0 1:0.0 2:0.0 3:0.0 4:0.0 5:0.0 6:0.0 7:0.0 8:0.0 9:0.0 10:8.786832833282097E-4 11:0.0 12:2.575576257571357E-4 13:8.678496265190655E-4 14:3.2990123822682364E-4 15:0.0 16:5.021047333304056E-4 17:0.0031290616499092005 18:1.551615797789472E-4 19:0.0 20:0.0 
-1.0 1:0.028153646178509847 2:0.0 3:0.0 4:0.004293445328586543 5:0.011234623284304666 6:0.0 7:0.0 8:0.0 9:0.0 10:0.010806983185606765 11:0.0 12:0.0036956711035432 13:0.0 14:0.0 15:0.01872437214050778 16:0.007204655457071178 17:0.011712684241756826 18:0.004452798981070597 19:0.0 20:0.0 
-1.0 1:0.022908290046392044 2:0.0 3:0.011173531442710582 4:0.0017467629283603047 5:0.0030471601810408092 6:0.0 7:0.004035680026416633 8:0.0 9:0.0 10:0.0058623432236244565 11:0.004697826794325281 12:0.0 13:0.0067550745749840576 14:0.0 15:0.009141480543122428 16:0.0014655858059061141 17:0.0 18:0.0 19:0.0 20:0.0 
-1.0 1:0.024197942389432153 2:0.0 3:0.002503573355253309 4:0.010697848157805282 5:0.002731021638971449 6:0.0 7:0.0 8:0.0 9:0.0 10:0.006786589024357752 11:0.001403477978312248 12:2.24594930753004E-4 13:0.008072326905963531 14:0.0 15:0.0034137770487143106 16:0.0010946111329609277 17:0.011863472300908562 18:0.00541214870474692 19:0.0 20:0.0 
-1.0 1:0.04613929307537957 2:0.0 3:0.002917245634777846 4:0.04925385924931776 5:7.955689552750491E-4 6:0.0 7:0.0 8:0.0 9:0.0 10:0.006122288290456249 11:8.176892434861343E-4 12:7.851160981054713E-4 13:0.004409127928244889 14:0.0010056420273148576 15:0.0015911379105500983 16:0.005357002254149218 17:0.014100180433987867 18:0.012297505061553674 19:0.0 20:0.0 
-1.0 1:0.03219947894288003 2:0.0 3:0.007852657044209012 4:0.029462621269089127 5:0.00428303334235368 6:0.0 7:0.0 8:0.0 9:0.0 10:0.004120001903301392 11:0.0 12:0.0 13:0.001582468479709745 14:0.0 15:0.0014276777807845599 16:0.004120001903301392 17:0.008930573970555682 18:0.008487817535176138 19:0.0 20:0.0 
-1.0 1:0.0 2:0.0 3:0.024166437248625685 4:0.006044719081036317 5:0.0 6:0.0 7:0.0 8:0.0 9:0.0 10:0.0025358491246928157 11:0.0 12:0.02601557947888963 13:0.0 14:0.0 15:0.0 16:0.005071698249385631 17:0.0 18:0.0 19:0.0 20:0.0 
-1.0 1:0.0026401754085018003 2:0.0 3:0.0135213440311329 4:0.05073113928133548 5:0.0024582918024961134 6:0.0 7:0.0 8:0.0 9:0.0 10:0.009458872808670136 11:0.0 12:0.0 13:0.005449646052824562 14:0.009322239897378832 15:0.0024582918024961134 16:0.0 17:0.007688694563607243 18:0.03507603614536593 19:0.0 20:0.0 
-1.0 1:0.0 2:0.0 3:0.005272677217881968 4:0.0 5:0.003137289320801912 6:0.0 7:0.004155047682700378 8:0.0 9:0.0 10:0.007041696742948646 11:0.006449039305302561 12:0.004644103444165422 13:5.795730578145304E-4 14:0.002643801832575467 15:0.0 16:0.006035740065384554 17:0.0016353943634640894 18:0.0 19:0.0 20:0.0 
-1.0 1:0.0 2:0.0 3:0.0 4:0.0 5:0.0 6:0.0 7:0.0 8:0.0 9:0.0 10:0.0 11:0.014040095987585783 12:0.0 13:0.0 14:0.0 15:0.027320561168649983 16:0.013140309100680956 17:0.0 18:0.0 19:0.0 20:0.0 
-1.0 1:0.0023697609668821224 2:0.0 3:0.006068224331152706 4:0.0027827010747501994 5:0.0019858557677653074 6:0.0 7:2.922312353930546E-4 8:0.0 9:0.0 10:0.0010612584442547027 11:4.535713828588652E-4 12:8.710061851963048E-4 13:0.007826363934893422 14:0.0 15:2.206506408628119E-4 16:8.490067554037621E-4 17:0.02139370794598425 18:0.0 19:0.0 20:0.0 
-1.0 1:0.04706937720469616 2:0.0 3:0.0172185865396458 4:0.0 5:0.0 6:0.0 7:0.0 8:0.0 9:0.0 10:0.012045283342290875 11:0.0 12:0.037072200757417725 13:0.006939783645393778 14:0.0 15:0.0 16:0.0 17:0.0 18:0.0 19:0.0 20:0.0 
-1.0 1:0.0 2:0.0 3:0.011083228117473158 4:0.0 5:0.0 6:0.0 7:0.0 8:0.0 9:0.0 10:0.0016614183920401206 11:0.0 12:0.0034089380006820896 13:0.0 14:0.02838193440020941 15:0.0017271619129606312 16:0.0016614183920401206 17:0.0072026276659079335 18:0.012321969594169497 19:0.0 20:0.0 
-1.0 1:0.0 2:0.0 3:0.017999829123114302 4:0.0012506315340075139 5:0.0 6:0.0 7:0.0 8:0.0 9:0.0 10:0.007345218154282639 11:0.012332861085284063 12:0.00538253368528751 13:0.0 14:0.0 15:0.0 16:0.005246584395916171 17:0.0034117709996406 18:0.009079346016756472 19:0.003686766722779717 20:0.0 
-1.0 1:0.011286223040448401 2:0.0 3:0.007958115253595324 4:0.07124083970534935 5:0.002284501504030025 6:0.0 7:6.051219195824255E-4 8:0.0 9:0.0 10:0.008790172564499613 11:0.015027331927419826 12:0.008567046013116676 13:0.0025321901556738984 14:0.0011550931989910678 15:0.0059397039104780655 16:8.790172564499613E-4 17:4.763425366278907E-4 18:0.024447237279196038 19:0.0 20:0.0 
-1.0 1:0.0 2:0.0 3:0.0 4:0.0 5:0.06497863196868105 6:0.0 7:0.0 8:0.0 9:0.0 10:0.0 11:0.022261773818154036 12:0.0 13:0.0 14:0.0 15:0.0 16:0.02083508470017881 17:0.0 18:0.0 19:0.0 20:0.0 
-1.0 1:0.005517289635715301 2:0.0 3:0.011773392505740719 4:9.81621047347778E-4 5:0.0 6:0.0 7:0.0 8:0.0 9:0.0 10:0.002470827352264795 11:8.80006016315918E-4 12:8.449504446135094E-4 13:0.017082544357892377 14:0.0 15:8.561999226642446E-4 16:0.0032944364696863935 17:0.005355800059264874 18:0.0 19:0.0 20:0.0 
-1.0 1:0.0 2:0.0 3:0.016953685208266636 4:0.0 5:0.018493918329547682 6:0.0 7:0.0 8:0.0 9:0.0 10:0.03557991387261305 11:0.0 12:0.0 13:0.0 14:0.0 15:0.0 16:0.0 17:0.0 18:0.0 19:0.0 20:0.0 
-1.0 1:0.02147765614198969 2:0.0 3:0.010184746197202693 4:0.0 5:0.0022220049748994442 6:0.0 7:0.0 8:0.0 9:0.0 10:0.006412276529722314 11:0.00685135922499565 12:0.0 13:0.00246291767082367 14:0.10392315863418067 15:0.02222004974899444 16:0.0 17:0.006949670317197673 18:0.0 19:0.0 20:0.0 
-1.0 1:0.00838341412180117 2:0.0 3:0.01431155244853677 4:0.0 5:0.015611749239228563 6:0.0 7:0.0 8:0.0 9:0.0 10:0.0 11:0.0 12:0.007703314443099788 13:0.0 14:0.0 15:0.007805874619614282 16:0.0 17:0.0 18:0.0 19:0.0 20:0.0 
-1.0 1:0.01574446066777293 2:0.0 3:0.0 4:0.0 5:0.0 6:0.0 7:0.0 8:0.11377748584954173 9:0.0 10:0.0 11:0.0 12:0.0 13:0.0 14:0.0 15:0.0 16:0.0 17:0.0 18:0.0 19:0.0 20:0.0 
-1.0 1:0.004578176506231844 2:0.0 3:0.015631057284217466 4:0.009774439365080002 5:0.0 6:0.0 7:0.0 8:0.0 9:0.0 10:0.004100521988864979 11:0.0043813065493175495 12:0.01262032366209965 13:0.0 14:0.0 15:0.008525565187380136 16:0.0 17:0.004444174517262342 18:0.05575472766723503 19:0.0 20:0.0 
-1.0 1:0.0019019531154351507 2:0.0 3:0.0045456256745794454 4:0.005278888437298658 5:0.0010625557083859156 6:0.0 7:0.0 8:0.0 9:0.0 10:0.0034070335912195758 11:3.6403313108649056E-4 12:0.0013981266048760956 13:0.007066556357831731 14:0.0 15:3.5418523612863853E-4 16:0.0013628134364878303 17:0.018832091310332057 18:0.0016845591902459182 19:5.985293059079624E-4 20:0.0 
-1.0 1:0.018443511067962576 2:0.0 3:0.03935676923347611 4:0.0 5:0.00858646208157571 6:0.0 7:0.0 8:0.0 9:0.0 10:0.0 11:0.0 12:0.0 13:0.0 14:0.0 15:0.00858646208157571 16:0.008259622863285172 17:0.0 18:0.010209631949454725 19:0.0 20:0.0 
-1.0 1:0.002169824831525009 2:0.0 3:0.010495138462260299 4:0.003860492858476976 5:0.004714136044786664 6:0.0 7:0.0 8:0.0 9:0.0 10:0.005182508463237754 11:0.0013843455987759652 12:0.0013291993548878063 13:0.005225248862414138 14:0.0017025491353196073 15:0.0060610320575828535 16:0.017490966063427423 17:0.02246735621500021 18:0.0 19:0.0 20:0.0 
-1.0 1:0.0 2:0.0 3:0.009486280102186495 4:0.0 5:0.0 6:0.0 7:0.0 8:0.0 9:0.0 10:0.006636138885853223 11:0.0 12:0.0 13:0.0019116764130783436 14:0.04142177469466606 15:0.0 16:0.011613243050243138 17:0.003596146955144851 18:0.0 19:0.0 20:0.0 
-1.0 1:0.0 2:0.0 3:0.0118493498767455 4:0.0 5:0.0025851713793991382 6:0.0 7:0.0 8:0.0 9:0.0 10:0.0 11:0.0026570504234570943 12:0.0 13:0.0 14:0.009803387763049998 15:0.0 16:0.014920609043353858 17:0.0026951768040171624 18:0.003073867683706799 19:0.0 20:0.0 
-1.0 1:0.0 2:0.0 3:0.0 4:0.0 5:0.02701358857124942 6:0.0 7:0.0 8:0.0 9:0.0 10:0.0 11:0.0 12:0.0 13:0.10479853055515997 14:0.0 15:0.02701358857124942 16:0.012992665178201393 17:0.014081541728853713 18:0.0 19:0.0 20:0.0 
-1.0 1:0.0 2:0.0 3:0.014595887927646772 4:0.009127125499842917 5:0.0 6:0.0 7:0.21087096296971677 8:0.0 9:0.0 10:0.0 11:0.016364615190828463 12:0.023569081276239086 13:0.0 14:0.0 15:0.0 16:0.0 17:0.0 18:0.009465883926646766 19:0.0 20:0.0 
-1.0 1:8.589792247221425E-4 2:0.0 3:0.0 4:0.0 5:0.002399410561717763 6:0.0 7:0.0010592653163149445 8:0.0 9:0.0 10:0.013848469471376336 11:0.03370370347518929 12:0.0015785900522120656 13:0.0 14:0.008087957968184963 15:7.998035205725877E-4 16:0.0030774376603058527 17:0.0 18:0.0 19:0.0 20:0.0 
-1.0 1:0.0 2:0.0 3:0.007364130567791235 4:0.0 5:0.002868984943724581 6:0.0 7:0.0015198814037435432 8:0.0 9:0.0 10:0.004415645635741953 11:0.01238477202150765 12:5.662579590631824E-4 13:0.0 14:0.0 15:5.737969887449161E-4 16:0.0022078228178709766 17:5.982134672400861E-4 18:0.0 19:0.0 20:0.0 
-1.0 1:0.0 2:0.0 3:0.012771401936690926 4:0.0 5:0.001990239555332118 6:0.0 7:0.0 8:0.0 9:0.0 10:0.009572410603145067 11:0.012273461393121347 12:0.001964090106353257 13:0.0 14:0.0 15:0.0 16:0.0 17:0.0 18:0.0 19:0.0 20:0.0 
-1.0 1:0.0 2:0.0 3:0.0 4:0.01660477048766603 5:0.014483189053260234 6:0.0 7:0.0 8:0.0 9:0.0 10:0.0 11:0.0 12:0.014292896677558642 13:0.016053475420669944 14:0.0 15:0.014483189053260234 16:0.0 17:0.0 18:0.0 19:0.0 20:0.0 
-1.0 1:0.0 2:0.0 3:0.007179084941611279 4:0.0 5:0.0 6:0.0 7:0.010371829123266198 8:0.0 9:0.0 10:0.0 11:0.0 12:0.0 13:0.0 14:0.0 15:0.0 16:0.011299809780390135 17:0.0 18:0.0 19:0.019850897044804142 20:0.0 
-1.0 1:0.009939616743213364 2:0.0 3:0.005891731921179059 4:8.842146816571517E-4 5:0.002827876733453078 6:0.0 7:0.0047666939234172504 8:0.0 9:0.0 10:0.012117410787454293 11:0.01056910561939734 12:0.002029615781415513 13:5.699052437620211E-4 14:0.0 15:0.010540267824688745 16:0.003214823270140935 17:0.0010720763163969036 18:3.056776032770876E-4 19:0.0 20:0.0 
-1.0 1:0.007639324110990415 2:0.0 3:0.004347098771350419 4:0.0 5:0.040307257897732124 6:0.0 7:0.0 8:0.0 9:0.0 10:0.0 11:0.0 12:0.009359451078795798 13:0.0 14:0.0 15:0.004742030340909662 16:0.006842291129348663 17:0.0 18:0.0 19:0.0 20:0.0 
-1.0 1:0.0 2:0.0 3:0.006520648157025629 4:0.0 5:0.0035565227556822463 6:0.0 7:0.0 8:0.0 9:0.0 10:0.013684582258697326 11:0.0 12:0.007019588309096847 13:0.0 14:0.0 15:0.0035565227556822463 16:0.006842291129348663 17:0.0037078615794910665 18:0.0 19:0.0 20:0.0 
-1.0 1:0.0 2:0.0 3:0.004633452860002795 4:0.0 5:0.0 6:0.0 7:0.0011156802876113254 8:0.0 9:0.0 10:0.006482675267609945 11:0.016450624030303736 12:8.313317619042516E-4 13:0.0 14:0.0010648388950755079 15:8.423999239107212E-4 16:8.103344084512431E-4 17:0.0 18:0.0 19:0.0 20:0.0 
-1.0 1:0.12078390824133496 2:0.0 3:0.022910385416576536 4:0.0 5:0.0024991781526415785 6:0.0 7:0.0 8:0.0 9:0.0 10:0.002404048234636017 11:0.002568666209787004 12:0.002466341838331325 13:0.005540284656613744 14:0.0 15:0.0 16:0.012020241173180084 17:0.0 18:0.0 19:0.0 20:0.0 
